the -0.038194 -0.24487 0.72812 -0.39961 0.083172 0.043953 -0.39141 0.3344 -0.57545 0.087459 0.28787 -0.06731 0.30906 -0.26384 -0.13231 -0.20757 0.33395 -0.33848 -0.31743 -0.48336 0.1464 -0.37304 0.34577 0.052041 0.44946 -0.46971 0.02628 -0.54155 -0.15518 -0.14107 -0.039722 0.28277 0.14393 0.23464 -0.31021 0.086173 0.20397 0.52624 0.17164 -0.082378 -0.71787 -0.41531 0.20335 -0.12763 0.41367 0.55187 0.57908 -0.33477 -0.36559 -0.54857 -0.062892 0.26584 0.30205 0.99775 -0.80481 -3.0243 0.01254 -0.36942 2.2167 0.72201 -0.24978 0.92136 0.034514 0.46745 1.1079 -0.19358 -0.074575 0.23353 -0.052062 -0.22044 0.057162 -0.15806 -0.30798 -0.41625 0.37972 0.15006 -0.53212 -0.2055 -1.2526 0.071624 0.70565 0.49744 -0.42063 0.26148 -1.538 -0.30223 -0.073438 -0.28312 0.37104 -0.25217 0.016215 -0.017099 -0.38984 0.87424 -0.72569 -0.51058 -0.52028 -0.1459 0.8278 0.27062
of -0.1529 -0.24279 0.89837 0.16996 0.53516 0.48784 -0.58826 -0.17982 -1.3581 0.42541 0.15377 0.24215 0.13474 0.41193 0.67043 -0.56418 0.42985 -0.012183 -0.11677 0.31781 0.054177 -0.054273 0.35516 -0.30241 0.31434 -0.33846 0.71715 -0.26855 -0.15837 -0.47467 0.051581 -0.33252 0.15003 -0.1299 -0.54617 -0.37843 0.64261 0.82187 -0.080006 0.078479 -0.96976 -0.57741 0.56491 -0.39873 -0.057099 0.19743 0.065706 -0.48092 -0.20125 -0.40834 0.39456 -0.02642 -0.11838 1.012 -0.53171 -2.7474 -0.042981 -0.74849 1.7574 0.59085 0.04885 0.78267 0.38497 0.42097 0.67882 0.10337 0.6328 -0.026595 0.58647 -0.44332 0.33057 -0.12022 -0.55645 0.073611 0.20915 0.43395 -0.012761 0.089874 -1.7991 0.084808 0.77112 0.63105 -0.90685 0.60326 -1.7515 0.18596 -0.50687 -0.70203 0.66578 -0.81304 0.18712 -0.018488 -0.26757 0.727 -0.59363 -0.34839 -0.56094 -0.591 1.0039 0.20664
to -0.1897 0.050024 0.19084 -0.049184 -0.089737 0.21006 -0.54952 0.098377 -0.20135 0.34241 -0.092677 0.161 -0.13268 -0.2816 0.18737 -0.42959 0.96039 0.13972 -1.0781 0.40518 0.50539 -0.55064 0.4844 0.38044 -0.0029055 -0.34942 -0.099696 -0.78368 1.0363 -0.2314 -0.47121 0.57126 -0.21454 0.35958 -0.48319 1.0875 0.28524 0.12447 -0.039248 -0.076732 -0.76343 -0.32409 -0.5749 -1.0893 -0.41811 0.4512 0.12112 -0.51367 -0.13349 -1.1378 -0.28768 0.16774 0.55804 1.5387 0.018859 -2.9721 -0.24216 -0.92495 2.1992 0.28234 -0.3478 0.51621 -0.43387 0.36852 0.74573 0.072102 0.27931 0.92569 -0.050336 -0.85856 -0.1358 -0.92551 -0.33991 -1.0394 -0.067203 -0.21379 -0.4769 0.21377 -0.84008 0.052536 0.59298 0.29604 -0.67644 0.13916 -1.5504 -0.20765 0.7222 0.52056 -0.076221 -0.15194 -0.13134 0.058617 -0.31869 -0.61419 -0.62393 -0.41548 -0.038175 -0.39804 0.47647 -0.15983
and -0.071953 0.23127 0.023731 -0.50638 0.33923 0.1959 -0.32943 0.18364 -0.18057 0.28963 0.20448 -0.5496 0.27399 0.58327 0.20468 -0.49228 0.19974 -0.070237 -0.88049 0.29485 0.14071 -0.1009 0.99449 0.36973 0.44554 0.28998 -0.1376 -0.56365 -0.029365 -0.4122 -0.25269 0.63181 -0.44767 0.24363 -0.10813 0.25164 0.46967 0.3755 -0.23613 -0.14129 -0.44537 -0.65737 -0.042421 -0.28636 -0.28811 0.063766 0.20281 -0.53542 0.41307 -0.59722 -0.38614 0.19389 -0.17809 1.6618 -0.011819 -2.3737 0.058427 -0.2698 1.2823 0.81925 -0.22322 0.72932 -0.053211 0.43507 0.85011 -0.42935 0.92664 0.39051 1.0585 -0.24561 -0.18265 -0.5328 0.059518 -0.66019 0.18991 0.28836 -0.2434 0.52784 -0.65762 -0.14081 1.0491 0.5134 -0.23816 0.69895 -1.4813 -0.2487 -0.17936 -0.059137 -0.08056 -0.48782 0.014487 -0.6259 -0.32367 0.41862 -1.0807 0.46742 -0.49931 -0.71895 0.86894 0.19539
in 0.085703 -0.22201 0.16569 0.13373 0.38239 0.35401 0.01287 0.22461 -0.43817 0.50164 -0.35874 -0.34983 0.055156 0.69648 -0.17958 0.067926 0.39101 0.16039 -0.26635 -0.21138 0.53698 0.49379 0.9366 0.66902 0.21793 -0.46642 0.22383 -0.36204 -0.17656 0.1748 -0.20367 0.13931 0.019832 -0.10413 -0.20244 0.55003 -0.1546 0.98655 -0.26863 -0.2909 -0.32866 -0.34188 -0.16943 -0.42001 -0.046727 -0.16327 0.70824 -0.74911 -0.091559 -0.96178 -0.19747 0.10282 0.55221 1.3816 -0.65636 -3.2502 -0.31556 -1.2055 1.7709 0.4026 -0.79827 1.1597 -0.33042 0.31382 0.77386 0.22595 0.52471 -0.034053 0.32048 0.079948 0.17752 -0.49426 -0.70045 -0.44569 0.17244 0.20278 0.023292 -0.20677 -1.0158 0.18325 0.56752 0.31821 -0.65011 0.68277 -0.86585 -0.059392 -0.29264 -0.55668 -0.34705 -0.32895 0.40215 -0.12746 -0.20228 0.87368 -0.545 0.79205 -0.20695 -0.074273 0.75808 -0.34243
a -0.27086 0.044006 -0.02026 -0.17395 0.6444 0.71213 0.3551 0.47138 -0.29637 0.54427 -0.72294 -0.0047612 0.040611 0.043236 0.29729 0.10725 0.40156 -0.53662 0.033382 0.067396 0.64556 -0.085523 0.14103 0.094539 0.74947 -0.194 -0.68739 -0.41741 -0.22807 0.12 -0.48999 0.80945 0.045138 -0.11898 0.20161 0.39276 -0.20121 0.31354 0.75304 0.25907 -0.11566 -0.029319 0.93499 -0.36067 0.5242 0.23706 0.52715 0.22869 -0.51958 -0.79349 -0.20368 -0.50187 0.18748 0.94282 -0.44834 -3.6792 0.044183 -0.26751 2.1997 0.241 -0.033425 0.69553 -0.64472 -0.0072277 0.89575 0.20015 0.46493 0.61933 -0.1066 0.08691 -0.4623 0.18262 -0.15849 0.020791 0.19373 0.063426 -0.31673 -0.48177 -1.3848 0.13669 0.96859 0.049965 -0.2738 -0.035686 -1.0577 -0.24467 0.90366 -0.12442 0.080776 -0.83401 0.57201 0.088945 -0.42532 -0.018253 -0.079995 -0.28581 -0.01089 -0.4923 0.63687 0.23642
for -0.14401 0.32554 0.14257 -0.099227 0.72536 0.19321 -0.24188 0.20223 -0.89599 0.15215 0.035963 -0.59513 -0.051635 -0.014428 0.35475 -0.31859 0.76984 -0.087369 -0.24762 0.65059 -0.15138 -0.42703 0.18813 0.091562 0.15192 0.11303 -0.15222 -0.62786 -0.23923 0.096009 -0.46147 0.41526 -0.30475 0.1371 0.16758 0.53301 -0.043658 0.85924 -0.41192 -0.21394 -0.51228 -0.31945 0.12662 -0.3151 0.0031429 0.27129 0.17328 -1.3159 -0.42414 -0.69126 0.019017 -0.13375 -0.096057 1.7069 -0.65291 -2.6111 0.26518 -0.61178 2.095 0.38148 -0.55823 0.2036 -0.33704 0.37354 0.6951 -0.001637 0.81885 0.51793 0.27746 -0.37177 -0.43345 -0.42732 -0.54912 -0.30715 0.18101 0.2709 -0.29266 0.30834 -1.4624 -0.18999 0.92277 -0.099217 -0.25165 0.49197 -1.525 0.15326 0.2827 0.12102 -0.36766 -0.61275 -0.18884 0.10907 0.12315 0.090066 -0.65447 -0.17252 2.6336e-05 0.25398 1.1078 -0.073074
that -0.093337 0.19043 0.68457 -0.41548 -0.22777 -0.11803 -0.095434 0.19613 0.17785 -0.020244 -0.055409 0.33867 0.79396 -0.047126 0.44281 -0.061266 0.20796 0.034094 -0.64751 0.35874 0.13936 -0.6831 0.25596 -0.12911 0.2608 -0.11674 0.024925 -0.60259 -0.41474 -0.51104 0.14936 0.79977 -0.12716 0.40474 -0.21435 0.47031 0.49 0.48886 -0.17772 -0.18861 -0.78391 -0.14158 0.22169 -0.22078 -0.30509 -0.10837 0.57168 -0.7832 -0.16328 -0.76131 0.080873 0.00067217 0.44713 1.3434 -0.20014 -2.868 -0.002647 -0.39858 1.8379 1.2211 -0.16066 0.65853 0.26946 0.27212 0.94735 0.24372 0.8194 0.6774 0.063485 -0.55934 0.45541 -0.64684 -0.034702 -0.45566 0.21847 -0.051689 0.32299 -0.022961 -1.7955 0.31217 0.76227 -0.23191 -1.0133 -0.0064374 -1.8135 -0.75221 0.28362 -0.30815 -0.43853 -0.62654 0.13213 -0.54725 -0.47478 -0.0079727 -0.15112 -0.29326 -0.35118 -0.68175 0.28804 0.54893
on -0.21863 -0.42664 0.5196 0.0043103 0.58045 -0.10873 -0.37726 0.4566 -0.60627 -0.075773 0.11306 0.17703 0.1605 0.074514 0.63649 -0.078852 0.75268 -0.24962 -0.51628 -0.33348 0.66754 -0.34183 0.61316 0.31668 0.64846 -0.079312 -0.065219 -0.17718 -0.32439 0.51868 -0.23424 0.34381 0.046851 0.74025 -0.47005 0.53685 -0.35549 0.40737 -0.093421 -0.13439 -0.41969 -0.30041 0.28646 0.37419 -0.46054 -0.307 -0.3858 -0.69317 -0.00092461 -0.61984 0.11978 0.1495 0.17833 1.5313 -0.92445 -3.0428 0.030761 -0.64359 2.3824 0.56219 -0.56021 1.0264 -0.45143 0.14117 0.65944 0.37572 0.098334 0.38304 -0.076882 -0.21781 -0.29892 -0.49458 0.095239 -0.63059 -0.061311 0.17767 -0.14051 0.47182 -0.95891 0.045334 0.808 -0.026867 -0.27483 0.35541 -0.82896 -0.78838 -0.079732 0.22941 -0.45013 -0.3004 -0.52716 0.11358 -0.49906 0.827 -0.56991 0.25143 -0.40266 -0.29146 1.3816 0.18084
is -0.54264 0.41476 1.0322 -0.40244 0.46691 0.21816 -0.074864 0.47332 0.080996 -0.22079 -0.12808 -0.1144 0.50891 0.11568 0.028211 -0.3628 0.43823 0.047511 0.20282 0.49857 -0.10068 0.13269 0.16972 0.11653 0.31355 0.25713 0.092783 -0.56826 -0.52975 -0.051456 -0.67326 0.92533 0.2693 0.22734 0.66365 0.26221 0.19719 0.2609 0.18774 -0.3454 -0.42635 0.13975 0.56338 -0.56907 0.12398 -0.12894 0.72484 -0.26105 -0.26314 -0.43605 0.078908 -0.84146 0.51595 1.3997 -0.7646 -3.1453 -0.29202 -0.31247 1.5129 0.52435 0.21456 0.42452 -0.088411 -0.17805 1.1876 0.10579 0.76571 0.21914 0.35824 -0.11636 0.093261 -0.62483 -0.21898 0.21796 0.74056 -0.43735 0.14343 0.14719 -1.1605 -0.050508 0.12677 -0.014395 -0.98676 -0.091297 -1.2054 -0.11974 0.047847 -0.54001 0.52457 -0.70963 -0.32528 -0.1346 -0.41314 0.33435 -0.0072412 0.32253 -0.044219 -1.2969 0.76217 0.46349
was 0.13717 -0.54287 0.19419 -0.29953 0.17545 0.084672 0.67752 0.098295 -0.035611 0.21334 0.51663 0.20687 0.44082 -0.33655 0.56025 -0.6879 0.51957 -0.21258 -0.52708 -0.12249 0.33099 0.026448 0.59007 0.0065469 0.45405 -0.33884 -0.28261 -0.24633 0.10847 0.3164 -0.15368 0.73503 0.11858 0.70842 0.075081 0.29738 -0.11395 0.40807 -0.042531 -0.21301 -0.79849 -0.12703 0.752 -0.41746 0.46615 -0.039097 0.65961 -0.32336 0.442 -0.94137 -0.23125 -0.30604 0.79912 1.4581 -0.88199 -3.0041 -0.75243 -0.20503 1.1998 0.94881 0.30649 0.48411 -0.7572 0.65856 0.70107 -0.93141 0.52928 0.23323 0.18857 0.38691 0.011489 -0.31937 0.011858 0.22944 0.17764 0.16868 0.14003 0.58647 -1.5447 -0.064425 -0.00064711 0.13606 -0.32695 0.10043 -1.546 -0.5476 0.21027 -0.67195 -0.1597 -0.68271 -0.22043 -0.87088 -0.16248 0.83086 -0.23045 0.19864 -0.051892 -0.52057 0.25434 -0.23759
with -0.43608 0.39104 0.51657 -0.13861 0.2029 0.50723 -0.012544 0.22948 -0.6316 0.21199 -0.018043 -0.39364 0.74164 0.30221 0.51792 -0.25191 0.25373 -0.65184 -0.42963 0.0093622 0.023334 -0.39245 0.34948 0.21217 0.7346 -0.21962 -0.028611 -0.34641 -0.20934 -0.27091 -0.17637 0.82396 -0.082339 -0.034869 0.079722 0.34841 0.60887 0.22811 -0.29633 0.18633 0.234 -0.70966 0.16312 -0.20857 0.092369 -0.075435 -0.13905 -0.35121 -0.19972 -0.41687 -0.31485 0.16123 0.038882 1.6654 -0.12401 -3.3419 0.10929 -0.026199 1.244 0.84374 -0.15679 0.79041 -0.042433 0.18884 0.064345 -0.11683 1.0467 0.71813 0.57834 0.27014 -0.50908 -0.083995 -0.1437 -0.76408 0.27418 0.56814 -0.39375 -0.32558 -0.92854 -0.13098 1.3277 0.11851 -0.15551 0.5972 -1.084 -0.058137 0.23886 0.14558 -0.59303 -0.47511 -0.22064 -0.37591 -0.79649 0.013465 -0.44595 -0.34623 -0.75398 -0.3517 0.99456 0.088196
he 0.1225 -0.058833 0.23658 -0.28877 -0.028181 0.31524 0.070229 0.16447 -0.027623 0.25214 0.21174 -0.059674 0.36133 0.13607 0.18755 -0.1487 0.31315 0.13368 -0.59703 -0.030161 0.080656 0.26162 -0.055924 -0.35351 0.34722 -0.0055801 -0.57935 -0.88007 0.42931 -0.15695 -0.51256 1.2684 -0.25228 0.35265 -0.46419 0.55648 -0.57556 0.32574 -0.21893 -0.13178 -1.1027 -0.039591 0.89643 -0.9845 -0.47393 -0.12855 0.63506 -0.94888 0.40088 -0.77542 -0.35153 -0.27788 0.68747 1.458 -0.38474 -2.8937 -0.29523 -0.38836 0.94881 1.3891 0.054591 0.70486 -0.65699 0.075648 0.7655 -0.63365 0.86556 0.42441 0.14796 0.4156 0.29354 -0.51295 0.19635 -0.45568 0.0080246 0.14528 -0.15395 0.11406 -1.2167 -0.1111 0.8264 0.21738 -0.63776 -0.074874 -1.713 -0.8827 -0.0073058 -0.37623 -0.50209 -0.58844 -0.24943 -1.0425 0.27678 0.64142 -0.64605 0.43559 -0.37276 -0.0032068 0.18744 0.30702
as -0.32721 0.096446 0.34244 -0.44327 0.30535 -0.042016 -0.071235 -0.31036 -0.22557 -0.181 -0.29088 -0.61542 0.29751 0.030491 0.41504 -0.51489 0.68628 -0.020302 -0.18486 0.31605 0.59472 -0.2147 0.29256 0.43262 0.35466 -0.29659 -0.27086 -0.48953 -0.047391 0.24521 -0.15783 0.59742 -0.41664 0.057632 0.1233 0.62326 -0.08844 0.3077 -0.15742 -0.28381 -0.58058 -0.022824 0.26689 -0.22565 0.47548 0.11134 0.37263 -0.14554 -0.16775 -0.79377 -0.30593 -0.10671 0.44199 1.5698 -0.73062 -2.7314 -0.19366 -0.32983 1.2881 0.62126 -0.255 0.8416 -0.23658 0.42594 0.86589 -0.35904 0.78162 0.20396 0.82898 0.0016123 -0.24008 -0.72735 -0.053671 -0.22264 0.31034 -0.21243 -0.14335 0.317 -0.80478 -0.49311 0.88023 -0.24147 -0.3922 0.15997 -1.5854 -0.25824 0.052834 -0.11983 -0.018874 -0.77356 0.049285 -0.25332 -0.3073 0.51295 -0.56802 -0.21239 -0.39741 -0.38165 0.43994 0.24683
it -0.30664 0.16821 0.98511 -0.33606 -0.2416 0.16186 -0.053496 0.4301 0.57342 -0.071569 0.36101 0.26729 0.27789 -0.072268 0.13838 -0.26714 0.12999 0.22949 -0.18311 0.50163 0.44921 -0.020821 0.42642 -0.068762 0.40337 0.095198 -0.31944 -0.54651 -0.13345 -0.56511 -0.20975 1.1592 -0.194 0.19828 -0.11924 0.41781 0.0068383 -0.20537 -0.53375 -0.52225 -0.38227 -0.0065833 0.14265 -0.42502 -0.3115 0.0027352 0.75093 -0.48218 -0.18595 -0.77104 -0.046406 -0.06914 0.41688 1.3235 -0.81742 -3.3998 -0.11307 -0.34123 2.0775 0.61369 0.14792 0.93753 -0.10138 0.28426 0.97899 -0.32335 0.63697 0.58308 0.2282 -0.31696 0.21061 -0.6506 0.21653 -0.24347 0.55519 -0.34351 -0.095093 -0.14715 -1.2876 0.3931 0.30163 -0.21767 -1.1146 0.51349 -1.341 -0.30381 0.32499 -0.45236 -0.17743 -0.048504 -0.12178 -0.42108 -0.40327 0.038452 -0.36084 0.037738 -0.21885 -0.38775 0.36916 0.54521
by -0.20875 -0.1174 0.26478 -0.28339 0.19584 0.7446 -0.03887 0.028499 -0.44252 -0.30426 0.27133 -0.51907 0.52183 -0.76648 0.28043 -0.48344 -0.15626 -0.49705 -0.51024 -0.03652 0.20579 -0.6136 0.46388 0.73497 0.66813 -0.4443 -0.17603 -0.5478 -0.013521 0.16333 0.28148 0.054223 -0.19906 -0.1907 -0.43179 0.14781 0.27555 0.18571 -0.40776 -0.15415 -0.5885 -0.0085281 -0.14178 0.7061 0.54031 -0.43305 0.17497 -0.46208 -0.31372 -0.34039 -0.25128 0.68228 0.33576 1.5862 -0.39427 -2.9938 -0.29773 0.04213 1.9075 -0.072628 -0.092191 0.66133 0.13868 0.78774 0.69307 -0.22185 0.71705 1.1453 1.2153 0.14196 -0.79914 0.16965 -0.34532 -0.51742 -0.15648 0.18757 0.1694 -0.0082713 -1.4511 0.061983 1.1019 0.084411 -0.34148 0.49994 -1.1106 -0.13759 0.15377 -0.061006 -0.53826 -0.78941 -0.12566 -0.57381 -0.73484 0.54774 -0.28455 -0.24348 -0.27511 -0.33267 0.27878 -0.8705
at 0.1766 0.093851 0.24351 0.44313 -0.39037 0.12524 -0.19918 0.59855 -0.82035 0.28006 0.54231 0.023079 0.12837 -0.044489 0.3837 -0.75659 0.40254 -0.4462 -0.81599 -0.0091513 0.65219 -0.043656 0.54919 -0.16696 0.73028 -0.20703 -0.069863 -0.31259 0.27226 0.084905 -0.60498 0.42826 0.60134 0.50953 -0.39073 0.44608 -0.36331 0.50858 -0.20308 -0.43503 -0.086827 -0.86581 -1.0151 -0.35725 -0.12993 0.3324 0.3026 0.067277 -0.52948 -0.81223 0.39562 -0.79537 0.24331 1.2506 -1.0169 -3.3391 -0.79691 -0.33877 1.366 0.87513 -0.63701 0.68381 -0.057432 0.12541 -0.8258 -0.56117 0.30807 0.1545 0.61473 0.67403 -0.60833 -0.25911 -0.35619 -0.71189 -0.31207 0.035238 0.22488 -0.33492 -1.1586 -0.17373 0.95937 0.24479 -0.46205 -0.075941 -1.0844 0.093676 0.48546 0.13008 0.23455 -0.27964 -0.24481 -0.016213 0.46302 1.0291 -0.81817 0.17522 0.06797 0.056305 1.2312 0.40695
from 0.30731 0.24737 0.68231 -0.52367 0.44053 0.42044 0.0002514 0.15265 -0.61363 0.22631 0.083071 0.070425 0.017683 0.56807 1.0067 -0.46206 0.44524 -0.50984 -0.42985 0.19935 0.22729 0.51662 0.56282 0.41282 0.17742 -0.15694 -0.11505 -0.3805 0.4744 -0.16686 0.23153 0.063698 -0.10716 -0.26848 -0.42665 0.52237 0.095376 0.6402 -0.52221 -0.13856 -0.98307 -0.3532 -0.52161 0.11277 0.31634 0.13297 -0.049571 -0.13785 0.11317 -0.50644 0.38373 0.36698 0.39106 0.98143 -0.5441 -2.464 -0.68383 -0.96243 2.2017 0.56643 -0.04941 1.3093 -0.40073 0.8353 0.1744 0.044926 0.54118 -0.11038 0.382 0.15369 -0.37072 -0.13141 -0.52504 -0.56775 -0.16822 -0.091726 0.081418 0.045884 -1.4401 -0.16349 0.49361 0.2141 -0.7011 0.23067 -1.1803 0.065701 -0.046429 0.080979 -0.16424 -0.72896 -0.21221 0.034235 -0.40642 0.28826 -0.81331 -0.067997 -0.25439 0.13735 1.0103 -0.77614
an -0.4214 -0.18797 0.46241 -0.17605 0.36212 0.36701 0.27924 0.14634 -0.054227 0.45834 0.065416 -0.33725 0.067505 -0.36316 0.50302 -0.010361 0.72826 -0.17564 -0.33996 0.072864 0.64481 -0.23908 0.38383 0.13858 1.0994 -0.24883 -0.15078 -0.48738 -0.23042 0.064788 -0.70183 0.82654 0.06128 0.18531 -0.30162 -0.022151 0.34302 0.80331 0.17135 0.15462 -0.50759 0.39572 0.054291 -0.53081 0.48252 0.086205 0.59585 -0.22377 -0.3955 -0.73036 -0.10279 -0.39166 1.229 1.2129 -1.0365 -3.4971 0.10923 -1.0084 1.9998 0.7964 0.3881 0.43746 0.085194 0.38549 0.61993 -1.032 0.70119 -0.2246 0.079435 0.09126 -0.21196 -0.55429 -0.053352 -0.80201 0.46798 -0.05005 -0.57422 -0.084822 -1.7227 -0.94286 0.98667 0.31211 -0.37735 0.068674 -0.77838 -0.28486 0.81047 0.46596 -0.11865 -0.93411 0.33722 0.037906 -0.18273 -0.019941 0.20494 -0.47718 -0.49253 -0.56518 0.72558 -0.15913
be -0.46953 0.38432 0.54833 -0.63401 0.010133 0.11364 0.10612 0.58529 0.032302 -0.12274 0.030265 0.52662 1.0398 -0.082143 0.19118 -0.83784 0.50763 0.44488 -0.72604 0.036893 0.24211 -0.28878 0.33657 0.13656 0.14579 -0.13221 0.098428 -0.45276 -0.13029 0.015762 -0.010161 0.4967 -0.28461 0.29655 0.92979 0.42447 -0.082773 0.30438 -0.39219 -0.30585 -0.43201 -0.27333 0.24388 -0.58081 0.22679 0.027226 0.53473 -0.37527 -0.16119 -1.1235 0.12768 -0.69898 0.41341 1.2291 -0.41248 -2.5173 -0.15354 -0.043107 1.9111 0.80754 -0.14759 0.9609 -0.84267 0.084422 1.2616 -0.10938 0.54846 0.75255 -0.071289 -0.73987 0.094808 -0.97589 0.0078721 -0.23928 0.2882 -0.41516 0.034366 0.1197 -1.2142 -0.11306 0.52847 -0.42273 -0.93378 -0.046645 -2.122 -0.341 0.64229 -0.10097 -0.22875 -1.0776 -0.68044 -0.26372 -0.18331 -0.051632 -0.30836 0.066537 0.20422 -0.68914 0.4511 0.25125
has 0.093736 0.56152 0.48364 -0.45987 0.56067 -0.1694 0.018687 0.45529 0.065615 0.25181 -0.14251 0.10532 0.77865 0.1428 -0.08114 -0.069555 0.32433 0.019611 -0.15608 0.22235 0.35559 0.14713 0.19156 0.2803 0.27691 -0.2067 -0.11378 -0.48318 -0.64248 -0.35523 0.21939 1.2533 -0.21164 0.91811 0.31986 0.48367 0.15322 0.56109 -0.60692 -0.028075 -0.92199 -0.25583 0.66362 -0.49082 0.34757 -0.048103 0.57283 -0.62332 0.87508 -0.50079 -0.12316 -0.69096 0.10129 1.516 -0.174 -2.8902 -0.24541 -0.17934 1.1001 1.4198 0.49132 0.30282 0.077149 -0.097834 0.90586 -0.1615 0.55681 0.32817 0.49335 0.044815 0.57458 -0.32663 -0.29745 0.001807 0.24382 -0.51915 -0.14392 0.27921 -1.5964 0.37152 0.81129 -0.13488 -0.36534 -0.022346 -1.5091 -0.38727 0.30063 -0.37562 -0.18582 -0.39748 -0.10719 -0.12265 -0.66462 0.12112 -0.37281 0.60048 -0.42683 -0.81305 0.62397 0.73176
are -0.51533 0.83186 0.22457 -0.73865 0.18718 0.26021 -0.42564 0.67121 -0.31084 -0.61275 0.089526 -0.24011 1.1878 0.67609 -0.022885 -0.92533 0.071174 0.38837 -0.42924 0.37144 0.32671 0.43141 0.87495 0.34009 -0.23189 -0.41144 0.49061 -0.32906 -0.49109 -0.18988 0.33408 -0.21245 -0.38386 -0.080547 1.1161 0.23617 0.31333 0.49286 0.1 -0.15131 -0.14176 -0.2802 -0.2388 -0.35486 0.18282 -0.19134 0.60544 0.074573 -0.20731 -0.60965 0.19908 -0.57024 -0.17427 1.4419 -0.25019 -1.8648 0.41671 -0.24607 1.501 0.87415 -0.67135 1.2762 -0.2721 0.17583 1.2242 0.28242 0.62375 0.63951 0.36914 -0.84677 -0.3227 -0.67152 -0.19635 -0.40789 -0.20966 -0.19623 0.041885 0.53967 -1.1105 -0.39515 0.6659 -0.233 -1.082 0.046465 -2.0993 -0.28493 0.080025 -0.12963 -0.30011 -0.46764 -0.81831 -0.048509 -0.32233 -0.32013 -1.1207 -0.056788 -0.73004 -1.2024 1.1304 0.3479
have 0.15711 0.65606 0.0021149 -0.65144 -0.28427 -0.20369 -0.077596 0.40798 -0.03447 -0.1639 -0.21597 0.34178 1.196 0.33639 -0.21076 -0.56015 0.1507 0.34912 -0.97128 0.18152 0.74408 0.20029 0.66986 0.16085 -0.0013507 -0.55392 0.19411 -0.48043 -0.29777 -0.50765 0.80164 0.50424 -0.40524 0.53991 0.65686 0.2114 0.18575 0.80697 -0.20066 0.095714 -0.58899 -0.35907 0.27162 -0.51794 0.2347 -0.045999 0.56501 -0.40747 0.63377 -0.92266 -0.023418 -0.2504 -0.19576 1.3863 0.087314 -2.2309 0.15084 -0.18661 1.292 1.3259 -0.3018 1.2554 -0.41594 0.045082 1.2569 0.19148 0.53144 0.54904 0.16331 -0.66509 0.11798 -0.52498 -0.084623 -0.55866 -0.44294 -0.19599 -0.17698 0.3181 -1.4736 0.26293 0.96367 -0.25463 -0.70786 -0.11713 -2.3508 -0.47386 0.56258 -0.079965 -0.69856 -0.48524 -0.33081 -0.19205 -0.49695 -0.32643 -0.97207 0.21092 -0.58082 -0.60615 0.71005 0.41469
but -0.057078 0.39874 0.68861 -0.68151 -0.45583 0.2008 0.17974 0.053648 0.43762 -0.026725 0.13383 -0.0078137 0.42207 -0.31801 0.18065 -0.35387 -0.30929 0.04066 -0.48854 0.3791 0.47955 -0.041942 0.40894 0.12419 0.40096 0.19545 -0.37819 -0.77684 -0.20677 -0.4313 -0.10095 0.39866 -0.29612 -0.083111 -0.019026 0.53927 0.0011912 0.30235 -0.36048 -0.48434 -0.47751 -0.33922 0.34788 -0.17484 -0.22613 -0.3291 0.81259 -0.58452 0.14509 -0.71497 0.17107 -0.24833 0.22104 1.5517 0.040869 -2.9103 -0.20812 -0.17625 1.6597 0.86277 -0.32527 0.65641 -0.13142 0.32312 0.90836 -0.29105 0.84975 0.53217 0.15041 -0.27983 -0.029015 -0.63378 0.12237 -0.79144 0.16108 0.017446 -0.35095 -0.16949 -1.0001 -0.036832 0.8114 -0.2271 -0.62133 0.16484 -1.6804 -0.39861 0.063602 0.10644 -0.57955 -0.45573 -0.037633 -0.63445 -0.30094 0.39828 -0.82883 0.33827 -0.23613 -0.19357 -0.030606 0.2397
not -0.19104 0.17601 0.3692 -0.50323 -0.47561 0.15798 -0.11679 0.21052 0.32652 0.12194 0.090944 0.26089 0.76294 0.00069673 -0.050001 -0.44853 0.36239 0.56345 -0.68702 0.33237 0.31285 -0.14207 0.35327 -0.16426 -0.10693 0.077786 -0.17704 -0.92897 0.1468 -0.13585 0.25682 0.66019 -0.35569 0.21838 0.38173 0.54337 0.10197 0.3523 -0.2551 -0.15155 -0.67434 0.16903 0.16413 -0.53843 -0.17457 -0.28539 0.74044 -0.67533 -0.23382 -1.3599 0.30225 -0.14968 0.27043 1.1979 -0.29556 -2.5395 0.0010303 -0.26272 1.8303 0.80008 -0.35691 0.56578 -0.5504 0.070845 1.4275 0.09016 0.7842 0.7849 -0.33538 -0.65751 -0.20112 -1.0297 0.069195 -0.61272 0.11373 -0.19547 -0.21256 0.049763 -1.1619 -0.064512 0.53146 -0.47384 -0.68709 0.13024 -2.0899 -0.41346 0.30364 -0.00057448 -0.18833 -0.54779 -0.32058 -0.36704 -0.1474 -0.19044 -0.47712 0.048228 -0.26215 -0.5968 0.080843 0.27866
this -0.57058 0.44183 0.70102 -0.41713 -0.34058 0.02339 -0.071537 0.48177 -0.013121 0.16834 -0.13389 0.040626 0.15827 -0.44342 -0.019403 -0.009661 -0.046284 0.093228 -0.27331 0.2285 0.33089 -0.36474 0.078741 0.3585 0.44757 -0.2299 0.18077 -0.6265 0.053852 -0.29154 -0.4256 0.62903 0.14393 -0.046004 -0.21007 0.48879 -0.057698 0.37431 -0.030075 -0.34494 -0.29702 0.15095 0.28248 -0.16578 0.076131 -0.093016 0.79365 -0.60489 -0.18874 -1.0173 0.31962 -0.16344 0.54177 1.1725 -0.47875 -3.3842 -0.081301 -0.3528 1.8372 0.44516 -0.52666 0.99786 -0.32178 0.033462 1.1783 -0.072905 0.39737 0.26166 0.33111 -0.35629 -0.16558 -0.44382 -0.14183 -0.37976 0.28994 -0.029114 -0.35169 -0.27694 -1.344 0.19555 0.16887 0.040237 -0.80212 0.23366 -1.3837 -0.023132 0.085395 -0.74051 -0.073934 -0.58838 -0.085735 -0.10525 -0.51571 0.15038 -0.16694 -0.16372 -0.22702 -0.66102 0.47197 0.37253
who 0.26164 0.4472 -0.096845 -0.74067 0.20805 0.33434 -0.26796 0.022865 -0.37251 0.22637 -0.22139 0.20357 0.34547 0.17839 0.15189 -0.09791 0.95879 0.34033 -1.0375 0.33589 0.29997 0.33378 0.56341 -0.04013 0.27697 -0.56576 -0.37009 -0.74752 0.62616 -0.54981 0.26671 1.3877 -0.17649 0.40599 0.48077 0.18777 -0.25752 1.0871 0.55904 0.12204 -1.4921 0.17677 0.90724 -0.7636 0.1091 -0.024877 -0.14734 -0.55559 0.74541 -0.59346 -0.19779 -0.42991 0.30361 1.2408 -0.19161 -2.0891 -0.2374 -0.33597 0.60638 1.4537 0.46323 0.53161 0.067068 -0.043899 0.7305 -0.20189 1.0433 0.55102 -0.25149 0.45955 -0.043735 -0.70793 -0.70816 -0.38365 -0.28454 -0.24853 -0.45679 -0.21562 -0.87828 -0.55946 1.2574 0.37382 -0.84276 0.015869 -1.8082 -0.87081 -0.37524 0.033488 -0.46289 -0.9618 0.28619 -0.58053 0.46974 -0.089393 -1.1858 0.3699 -0.58993 -0.4503 0.49525 -0.20298
they -0.07954 0.30171 0.079516 -0.74662 -0.67879 0.35029 -0.19754 0.4929 0.14162 -0.23789 0.10939 0.23465 0.77763 0.12745 0.10873 -0.68024 0.25696 0.53981 -0.92294 0.088309 0.5524 0.073341 0.63424 -0.094834 -0.068988 -0.11287 -0.1932 -0.61233 0.16718 -0.43107 0.29355 0.42588 -0.22194 0.14787 0.53693 0.12846 0.12732 0.50899 0.2408 -0.3513 -0.52486 -0.37477 -0.084382 -0.39593 -0.14876 -0.030951 0.48431 -0.24678 0.12347 -1.1037 -0.09493 -0.038439 0.1075 1.6517 -0.10342 -2.4332 0.040486 -0.39164 1.5943 0.95891 -0.52496 1.1476 -0.57502 0.044767 1.097 -0.15884 0.59743 0.66712 -0.095168 -0.56173 -0.067523 -0.79894 0.066405 -0.82591 -0.58701 0.18065 -0.28443 -0.091645 -1.0481 -0.051988 0.75936 -0.039712 -0.9376 0.056433 -2.1626 -0.64355 0.42302 -0.10572 -0.72611 -0.1294 -0.38103 -0.7459 -0.0096764 -0.16205 -1.0562 -0.11999 -0.60909 -0.16731 0.65344 0.366
had 0.63256 -0.12718 -0.084182 -0.30718 -0.2526 -0.16172 0.47123 0.46553 -0.051526 0.17231 0.42743 0.57854 0.64548 0.31367 0.32752 -0.47608 0.25888 0.035845 -0.95154 -0.20671 0.65171 0.010712 0.3894 0.069552 0.061198 -0.72152 -0.22334 -0.34747 -0.1434 -0.32482 0.79539 0.84708 -0.046052 0.74384 0.18185 0.18666 0.17123 0.93485 -0.1299 0.39219 -1.016 -0.27859 0.79293 -0.40433 0.41505 0.017283 0.2936 -0.72944 0.98233 -0.96504 -0.19016 -0.010012 0.26765 1.3316 -0.19376 -2.4401 -0.39477 -0.36232 0.88315 1.5974 0.31113 0.72201 -0.55023 0.54995 0.6846 -0.40378 0.52677 0.23314 -0.12764 0.12305 -0.12489 -0.25052 0.11632 -0.41648 -0.19738 0.093786 -0.24532 0.29676 -1.6156 0.38933 0.68466 0.048371 -0.4177 0.10663 -2.0738 -0.81679 0.56651 -0.32536 -0.76685 -0.27123 -0.10798 -0.61763 -0.27098 0.077119 -0.89352 0.17811 -0.50156 -0.30966 0.22378 0.038183
i -0.046539 0.61966 0.56647 -0.46584 -1.189 0.44599 0.066035 0.3191 0.14679 -0.22119 0.79239 0.29905 0.16073 0.025324 0.18678 -0.31001 -0.28108 0.60515 -1.0654 0.52476 0.064152 1.0358 -0.40779 -0.38011 0.30801 0.59964 -0.26991 -0.76035 0.94222 -0.46919 -0.18278 0.90652 0.79671 0.24825 0.25713 0.6232 -0.44768 0.65357 0.76902 -0.51229 -0.44333 -0.21867 0.3837 -1.1483 -0.94398 -0.15062 0.30012 -0.57806 0.20175 -1.6591 -0.079195 0.026423 0.22051 0.99714 -0.57539 -2.7266 0.31448 0.70522 1.4381 0.99126 0.13976 1.3474 -1.1753 0.0039503 1.0298 0.064637 0.90887 0.82872 -0.47003 -0.10575 0.5916 -0.4221 0.57331 -0.54114 0.10768 0.39784 -0.048744 0.064596 -0.61437 -0.286 0.5067 -0.49758 -0.8157 0.16408 -1.963 -0.26693 -0.37593 -0.95847 -0.8584 -0.71577 -0.32343 -0.43121 0.41392 0.28374 -0.70931 0.15003 -0.2154 -0.37616 -0.032502 0.8062
which 0.03024 0.44606 0.43166 -0.37528 0.29068 0.23032 0.18125 0.40201 0.13518 -0.19562 0.30639 -0.13239 0.67897 0.42234 0.32637 -0.15281 0.37698 -0.23303 -0.33817 0.30588 0.44918 -0.83624 0.59146 0.24958 0.39986 -0.50172 -0.23544 -0.14696 -0.35144 -0.56852 0.08954 0.82612 -0.26586 0.3903 -0.036849 0.48257 0.71664 0.11004 -0.59354 -0.33216 -0.25736 -0.34531 -0.026326 -0.23747 0.00019656 -0.2748 0.38512 -0.39581 0.11404 -0.25174 -0.3247 0.089608 0.24929 1.5127 -0.19762 -2.8509 -0.53833 -0.47111 1.7859 0.78126 -0.12963 0.56077 0.32151 0.35571 0.84547 0.14931 0.11487 0.30625 0.54774 -0.50426 0.33824 -0.62043 -0.012869 0.066666 0.062731 -0.44534 0.15541 0.21801 -1.732 0.42054 0.36319 -0.072258 -0.74811 0.19888 -1.4461 -0.27576 0.26646 -0.57838 0.56151 -0.028701 -0.2466 -0.425 -0.57154 0.31939 -0.22075 0.46528 -0.16606 -0.79923 0.80849 0.37378
will -0.26703 0.44911 0.55478 -0.69003 0.046175 -0.43044 -0.29348 1.0149 -0.33757 -0.096388 -0.28176 0.41828 0.58357 -0.078788 -0.23511 -0.74174 0.68242 0.77152 -0.80698 0.13537 0.19157 -0.51766 0.30764 0.68624 0.15603 -0.13725 0.064215 -0.25319 0.33305 -0.61336 -0.60918 0.72316 -0.29642 0.34352 0.36234 0.74162 0.30484 0.41837 -0.35164 -0.41675 -0.32865 -0.56729 -0.11949 -0.70703 -0.20916 0.050621 0.057078 -0.56363 0.032941 -1.1897 0.0467 -0.48235 -0.12548 1.088 0.095233 -2.5264 -0.15569 -0.081787 1.9323 0.75413 -0.21121 0.7779 -0.41152 -0.019988 0.83285 0.45991 0.19578 1.1235 -0.21463 -1.0439 0.64653 -1.0831 -0.47316 -0.76509 0.22128 -0.38609 -0.24266 0.28377 -0.8266 -0.022102 0.9439 -0.40069 -0.65322 -0.053926 -1.6434 -0.57158 0.50725 0.24536 0.3272 -0.53953 -0.12521 0.071234 -0.14235 -0.41365 -0.68288 0.22851 0.56056 -0.87247 0.83828 0.465
their 0.17137 -0.33437 0.11471 -0.52008 -0.79816 0.48592 -0.73885 0.28653 -0.6273 0.26786 -0.32081 0.11757 0.61241 0.25964 -0.21165 -0.63307 0.40135 0.26175 -0.16827 -0.0092904 0.35687 -0.31246 0.79867 0.54921 0.17423 -0.30704 -0.23997 -0.64167 0.36679 -0.27327 0.64719 0.32952 -0.46198 0.057414 -0.088337 -0.027794 -0.074753 0.52992 -0.48819 -0.17822 0.045592 -0.39832 0.5287 0.01556 0.23284 -0.011029 -0.15533 -0.065942 0.22879 -1.0154 -0.2172 0.26772 -0.32618 1.6999 0.055699 -2.586 0.75177 -0.76514 1.9965 0.28489 -0.1825 1.3012 -0.074158 0.22211 0.8391 0.12388 0.4363 0.4045 0.25744 -0.63188 -0.34572 -0.097293 0.14742 -1.5755 -0.098063 0.36815 -0.83086 -0.41775 -1.3509 0.11379 0.76722 0.75707 -0.24826 0.4637 -1.8673 -0.46703 -0.01854 0.010588 -0.76759 0.21896 -0.46664 0.32206 0.2232 0.30753 -1.179 -0.85791 -1.0137 -0.11272 1.1948 0.53682
or 0.31039 0.64859 0.28481 -0.46756 -0.25715 0.71389 -0.064742 0.30187 0.52801 0.19849 0.20011 -0.072665 0.23712 0.72137 0.65764 -0.42129 0.18458 -0.11517 -0.4138 0.54855 0.13857 -0.090728 0.3171 0.26416 0.53625 0.068179 -0.096772 -0.64557 0.12414 -0.28334 0.39239 0.57338 -0.58856 -0.44752 0.22755 0.61385 0.07508 -0.11876 0.070905 0.12847 -0.40008 -0.66973 -0.24658 -0.69349 -0.20067 -0.1633 -0.22338 -0.032656 -0.52169 -1.4363 0.068198 0.27494 0.39587 1.3418 -0.66544 -1.9608 0.27415 -0.13552 2.252 0.7521 -0.28896 0.83412 -0.29035 0.291 0.81412 -0.38679 0.71252 -0.29467 0.5797 -0.31411 -1.0094 -0.32144 -0.033035 -0.46199 -0.051451 0.057455 -0.16413 0.28121 -0.58346 0.11114 0.2778 -0.13717 -0.66281 0.45848 -1.6707 0.36448 0.31026 0.48856 0.88709 -0.20468 -0.62125 -0.021678 0.14065 0.10319 -0.74186 -0.03031 -0.25264 -0.88554 0.91767 -0.57253
its 0.20589 -0.3171 0.74431 0.047407 -0.10826 -0.18517 -0.47992 0.27736 -0.47515 0.63156 0.035472 0.073577 0.36199 -0.1923 -0.43884 -0.32988 0.44746 -0.39097 0.46493 0.12546 0.38224 -0.45183 0.29384 0.62979 0.32395 -0.22369 -0.16764 -0.30502 -0.10406 -0.27813 0.32921 0.62754 -0.57658 0.12239 -0.56023 0.44731 0.48498 -0.20299 -0.92786 -0.22441 0.21687 -0.26173 0.50944 0.30419 0.5882 0.40474 0.57113 -0.24145 -0.076213 -0.61215 -0.016607 0.10699 -0.083368 1.4618 -0.58467 -3.2127 0.41215 -0.79032 2.7901 -0.39825 0.11872 0.58777 0.25648 0.42427 0.63226 -0.1714 0.11396 0.61377 0.65834 -0.21013 0.24094 -0.036859 -0.2394 -0.87062 0.2499 -0.55732 -0.494 -0.12043 -1.6417 0.43463 0.29555 0.075822 -0.3107 1.0174 -1.115 -0.31493 0.41304 -0.1616 0.070745 0.21949 0.034177 0.78235 -0.39665 0.34179 -0.73382 -0.45151 -0.81274 -0.67858 1.2779 0.86475
one -0.22557 0.49418 0.4861 -0.4332 0.13738 0.50617 0.26058 0.30103 -0.091486 0.10876 0.3058 0.051028 0.22303 0.054236 0.068838 -0.24701 0.32689 -0.082203 -0.28866 0.3734 0.73804 -0.040969 0.040201 0.11384 0.69987 -0.49745 -0.06755 -0.42599 -0.10725 -0.010697 -0.01479 0.55976 0.3064 0.053053 0.058034 0.32756 -0.37233 0.46513 0.14285 -0.085003 -0.45476 0.19773 0.6383 -0.31148 0.10858 0.31557 0.36682 -0.35135 -0.48414 -0.33235 -0.33816 -0.39678 0.1908 1.3513 -0.39044 -2.8795 -0.14276 -0.087754 1.7713 0.99332 -0.14129 0.94389 0.050897 0.47373 0.86387 -0.16162 0.67199 0.52344 0.14438 -0.055194 -0.34669 -0.20742 0.18907 -0.19845 0.34862 0.10121 -0.092119 -0.66258 -1.0582 -0.11803 0.70171 0.077776 -0.50546 0.032243 -1.6176 -0.29302 -0.061748 -0.32473 0.3439 -0.44698 0.085689 0.13295 -0.1807 -0.11854 -0.82985 0.13784 -0.34359 -0.45744 0.49646 0.34906
new -0.043959 0.18936 0.6611 -0.49007 0.32211 -0.34161 -0.06848 0.31364 -0.71142 0.57436 -0.33588 -0.52279 -0.39075 -0.089694 0.46371 -0.3561 0.84576 -0.026188 -0.19328 -0.083846 0.31806 -0.19812 0.30009 0.069189 0.5447 -0.59193 0.54221 -0.62876 -0.53447 0.42334 0.030869 0.97164 -0.56222 0.045752 -0.571 0.080185 -0.081434 -0.6026 0.16466 -0.40281 -0.47701 -0.5195 0.12777 -0.43775 0.26602 0.48752 -0.06022 -0.52622 0.37687 -0.18007 0.030166 -0.094577 0.1633 0.59041 -0.48877 -3.423 0.13113 -0.080386 1.8978 0.18857 -0.573 0.86358 0.0021116 0.3606 0.80475 -0.13954 -0.053935 0.38873 0.30673 -0.31395 0.083238 -0.41737 -1.0998 -0.88005 0.2155 -0.26132 -0.10091 0.079584 -1.2341 -0.65281 0.63363 -0.098491 0.33518 0.26332 -0.96427 -0.01415 0.30849 -0.31418 -0.40793 -0.429 0.085451 -0.20073 0.05505 -0.040922 -0.94015 0.069544 -0.45397 -0.14168 0.92789 0.59058
been -0.12135 0.15341 -0.014315 -0.50695 0.30361 0.080512 0.39152 0.2933 0.035886 -0.15228 0.09502 0.3393 1.2554 0.11321 -0.051129 -0.57003 0.31498 -0.186 -0.57884 0.0078366 0.54006 0.4534 0.68016 0.22213 0.075292 -0.47016 0.082904 -0.24712 -0.388 0.21901 0.37985 0.15801 -0.30129 0.73229 0.56992 0.086605 -0.20076 0.36037 -0.23286 -0.066291 -0.81877 -0.03379 0.62641 -0.20622 0.56038 0.11993 0.69504 -0.40375 0.52841 -0.86177 -0.010281 -0.56692 0.3033 1.414 -0.44229 -2.3658 -0.36824 -0.28689 1.3539 1.0304 -0.0017468 0.99368 -0.4248 0.2768 1.0864 -0.085121 0.65162 0.18836 0.16279 -0.12945 0.072747 -0.53828 -0.15001 -0.077713 -0.27551 -0.32725 0.15729 0.48495 -1.7036 0.20834 0.535 -0.23635 -0.63572 0.037145 -2.1431 -0.38923 0.32525 -0.28377 -0.77066 -0.79318 -0.44232 -0.42136 -0.46842 0.13889 -0.51673 0.21648 -0.32296 -0.50936 0.5068 0.080349
also -0.33819 0.064568 -0.032558 -0.29448 0.84125 -0.29092 -0.35264 0.35777 0.004152 -0.0067549 -0.11512 -0.38832 0.49764 0.47187 0.046247 -0.059806 0.59317 -0.080286 -0.45926 0.28211 0.33909 -0.25741 0.30599 0.53594 0.1168 -0.30916 -0.16143 -0.1841 -0.26339 -0.035592 -0.13136 1.1538 -0.61616 0.73314 0.46168 0.4241 0.2918 0.73092 -0.17098 -0.03529 -0.6867 -0.24653 0.34776 -0.46747 0.21257 -0.052958 0.1032 -0.52122 0.61087 -0.71005 -0.16765 -0.34415 0.27119 1.1337 -0.33195 -2.3864 -0.52352 -0.25531 0.80993 1.3563 -0.1452 0.32792 0.11149 0.17806 1.0008 -0.37243 0.3127 0.28634 0.47915 -0.23534 0.13146 -0.5478 0.054173 -0.19163 0.16276 -0.067267 -0.0044537 0.55708 -1.2568 -0.063385 0.62438 -0.28284 -0.6458 -0.2832 -1.8987 -0.5706 0.026083 -0.41721 0.29686 -0.18416 -0.19252 -0.59915 -0.17981 0.17649 -0.56043 0.48284 -0.44081 -0.84036 0.78533 0.36017
we -0.17791 0.62675 0.4787 -0.55295 -0.84935 -0.070802 -0.34724 0.4628 0.12611 -0.24875 0.46881 0.083636 0.56065 -0.21931 0.015561 -0.55806 -0.20738 0.9123 -1.2034 0.30115 0.46676 0.483 -0.10204 -0.56799 -0.027126 0.40567 -0.14058 -0.55485 0.094588 -0.62213 -0.30343 0.60639 0.049799 0.22204 0.48549 0.17629 -0.090535 0.53705 0.2755 -0.78827 -0.70953 -0.16678 0.11206 -0.48491 -0.66644 0.083952 0.32885 -0.45851 -0.37208 -1.5315 0.12994 -0.2409 -0.17219 1.374 -0.22313 -2.615 0.35201 0.33597 1.6117 0.92947 -0.37535 0.82034 -1.0677 -0.45329 1.2332 0.23749 0.63523 0.82859 -0.1744 -0.5853 0.56339 -0.73094 0.30815 -1.0888 0.46139 0.045386 -0.17827 -0.054054 -0.8831 0.033935 0.63083 -0.19741 -0.99051 0.20022 -1.9266 -0.25884 0.10367 -0.34129 -0.93507 -0.54666 -0.40171 -0.37783 -0.065771 -0.13836 -0.91872 -0.055635 -0.080557 -0.19526 0.20078 1.0953
would 0.039741 0.035052 0.32988 -0.5879 -0.25054 -0.40719 -0.13904 0.47393 0.059905 0.089996 -0.21521 0.56533 0.30099 -0.28658 -0.05573 -0.78724 0.48656 0.58321 -0.86199 0.20924 0.4674 -0.36396 0.30526 0.042185 -0.053602 -0.27202 -0.28585 -0.5417 0.29678 -0.40868 0.097381 0.81001 -0.20864 0.18478 0.18757 0.8558 0.44071 0.25218 -0.18148 -0.19156 -0.58345 -0.22581 0.0017304 -0.50861 -0.23616 -0.016889 0.4246 -0.50566 -0.1471 -1.2339 0.012578 -0.17898 0.12862 1.2898 -0.14519 -2.5557 -0.069128 -0.47917 1.8359 1.0345 -0.13604 0.58236 -0.48874 0.11841 1.1859 0.10033 0.2632 1.0095 -0.34785 -0.9308 0.41517 -1.1774 -0.33477 -0.52506 0.047776 -0.2339 -0.22857 0.31005 -1.0655 0.051151 0.72159 -0.52556 -0.45882 -0.16729 -1.8869 -0.48996 0.82211 0.0077917 0.072314 -0.46795 -0.13359 -0.32797 -0.27505 -0.31342 -0.67763 0.015973 0.28487 -0.26137 0.55433 0.2451
two -0.20154 0.32739 0.0004758 -0.22452 0.4411 0.33599 0.40657 0.66527 -0.63852 0.044351 0.59747 -0.086113 0.39787 0.88041 0.17005 -0.14275 -0.1792 -0.11622 -0.56175 0.21378 0.95272 -0.27654 0.22567 0.4587 0.83297 -0.90489 -0.24019 -0.41669 -0.31842 0.33599 0.17516 0.24785 -0.36002 -0.11895 0.41239 0.19549 0.071716 0.31329 -0.36803 0.51546 -0.44828 -0.2977 0.51132 -0.24885 0.15397 0.28301 -0.12827 -0.58284 -0.16847 0.029912 -0.65801 -0.41906 -0.14271 1.4463 0.050253 -2.6762 0.064998 -0.18747 1.8076 1.5002 -0.68615 1.1491 0.36129 0.50156 0.33909 0.1437 0.41324 0.75141 0.0079898 -0.017592 -0.58609 -0.095992 0.12828 -0.60489 0.27201 0.38497 -0.28595 -0.50807 -1.1539 -0.065888 1.1285 0.28462 -0.24782 0.44859 -1.4726 -0.12682 0.18053 -0.047814 0.016943 -0.22543 -0.22757 0.29341 -0.86753 -0.015261 -1.2675 0.020593 -0.72345 0.023054 0.54016 -0.080331
more -0.38469 0.99338 0.13398 -0.32708 -0.07744 0.17769 -0.071985 0.1616 -0.1377 0.051739 0.15964 0.016507 -0.049616 -0.53964 0.24449 -0.62066 -0.345 -0.015009 0.059399 0.79348 1.2096 -0.094457 0.14585 -0.063804 0.1468 -0.50725 -0.15582 -0.69462 -0.18542 -0.20292 0.011547 0.39695 -0.45813 -0.19921 0.32108 0.54069 -0.0073385 0.12096 -0.77902 0.42854 -0.53546 -0.58143 0.14424 -0.47396 -0.20623 -0.20815 0.54938 -0.51741 0.09016 -0.75701 -0.063903 -0.73684 -0.097376 1.2635 -0.51026 -2.5686 0.4768 -0.54214 2.1144 0.49177 0.21146 1.5787 -0.28596 0.051544 0.4962 -0.26324 0.82709 0.50339 0.90994 -0.28113 0.020357 -0.63306 -0.33049 -0.17052 0.66252 -0.055619 -0.37653 -0.15417 -1.1648 -0.15672 1.2909 0.12161 -0.48802 0.47592 -1.5741 0.17322 0.62257 -0.041003 -0.52627 -0.55419 0.55319 0.4197 -0.41377 -0.55962 -0.81527 -0.27972 -0.85805 -0.32359 0.62028 0.46397
about 0.66039 0.63888 0.86264 0.27455 -0.89222 0.64171 -0.27304 0.29033 -0.057512 -0.24491 0.62227 0.49926 0.227 -0.59077 0.90674 -0.69621 0.19357 -0.2317 -0.24986 0.67362 0.70398 0.053391 0.17195 -0.059168 -0.024024 -0.074141 0.14598 -0.23227 -0.17126 -0.043476 -0.41067 0.26134 0.4208 -0.12309 -0.82775 0.42115 0.05912 0.50765 0.21512 0.36136 -0.90275 -0.69712 0.12395 -0.23245 -0.4932 -0.39441 0.15376 -1.0667 -0.10011 -0.77981 0.58789 -0.1514 0.1825 1.5862 -0.94788 -2.5911 0.27182 -0.57057 1.5857 0.72034 0.64183 1.5991 -0.22208 -0.20578 0.55937 -0.11309 1.0917 0.77839 0.59488 0.36718 -0.0063842 -0.13847 -0.49184 -0.2293 -0.091083 0.14165 0.51691 0.094609 -1.4873 0.3587 0.76758 -0.01885 -0.09132 0.00024154 -1.0555 -0.21219 0.38834 -0.0097613 -0.43296 -0.50509 0.28889 0.50233 -0.3463 -0.61814 -0.66255 -0.043362 -0.44525 -0.55901 1.0752 0.577
up 0.21469 0.43367 0.33964 -0.65715 0.15546 0.15318 -0.62081 0.27839 -0.3704 0.0029626 0.37131 0.32756 -0.32802 0.10206 0.52715 -0.33415 -0.012657 0.20382 -0.19846 0.10483 0.72682 0.30136 0.73955 0.2264 0.5213 -0.46339 -0.56209 -0.47684 0.056159 -0.46364 -0.18426 0.15954 0.23868 -0.030124 -0.18315 0.27942 0.031251 -0.16198 -0.18941 0.2571 -0.48811 -0.70303 -0.0055224 -0.63184 -0.17694 0.38916 -0.64778 -0.08909 0.17655 -1.2462 -0.21257 -0.20355 0.11958 1.6196 -0.77112 -2.8367 -0.21148 0.11873 2.1393 0.78805 0.41318 0.97607 -0.67157 0.29821 0.12548 0.10129 0.69104 0.61075 0.58256 0.3346 0.042307 -0.45933 -0.24029 -0.73154 -0.3054 0.19878 -0.34562 0.0035721 -0.57002 0.027172 0.68865 0.4502 -0.62077 0.36449 -1.2001 0.15149 0.58623 0.35867 -0.22877 -0.032302 -0.18218 0.18319 -0.34823 -0.36982 -0.61882 -0.38964 0.0028948 0.046601 0.83004 0.40299
there -0.084215 0.69597 0.28383 -0.22497 -0.55923 0.21196 -0.15175 0.31601 0.24803 -0.36385 0.2252 0.34109 0.61438 0.08318 0.74894 -0.38785 -0.27211 0.2656 -0.66332 0.45571 0.34949 0.38635 0.25707 -0.60101 -0.047292 -0.41198 0.38246 -0.52151 0.037757 -0.42492 -0.36352 -0.037377 0.31263 0.19709 0.008142 0.53871 -0.074505 0.31395 0.35129 -0.39005 -0.5474 -0.11395 0.076668 -0.61069 0.15894 -0.33043 0.75967 -0.52289 -0.38957 -0.71164 0.28724 -0.35683 0.050529 1.3392 -0.16064 -2.9236 0.17524 -0.42109 1.5235 0.85181 -0.47563 1.1225 -0.48463 0.36458 0.97809 -0.2227 0.88791 0.068738 0.22557 0.026459 -0.032799 -0.40426 0.14579 -0.4535 0.47756 0.15933 0.24236 0.0091798 -1.3502 -0.078424 0.57803 -0.50061 -0.19374 0.29587 -1.2316 -0.099825 0.31661 -0.46539 -0.54243 -0.13506 -0.12897 -0.29543 -0.28094 0.092313 -0.78078 -0.097087 -0.57313 -0.54 0.58031 0.46698
all -0.21823 0.69199 0.70441 -0.59642 -0.21818 0.55387 -0.32052 0.52602 -0.31667 -0.19129 0.76109 0.047439 0.43199 0.12232 0.25664 -0.52453 0.048994 0.81621 -0.53336 0.53093 0.24589 -0.046352 0.38898 -0.41434 0.28169 -0.35422 0.24713 -0.44007 0.023343 -0.38592 0.31762 0.26774 -0.19487 0.024135 -0.056042 0.33799 0.12103 0.32306 -0.67209 -0.028449 -0.79051 -0.29798 0.25696 -0.1822 -0.066176 0.28468 0.019382 -0.51672 -0.065801 -0.74178 -0.043 0.10303 -0.22385 0.96676 -0.38914 -2.1671 0.25583 0.067169 2.0256 0.86387 -0.14699 1.0254 -0.42629 0.19325 0.83025 0.097585 0.79303 0.4349 0.26404 -0.17101 -0.13859 -0.55096 0.020747 -0.39791 0.43081 0.37966 -0.52257 -0.20961 -1.1568 -0.38041 0.81093 -0.050365 -0.27241 0.87153 -1.8965 0.19574 -0.2269 -0.28267 -0.14656 -0.18737 -0.61509 0.009347 -0.3978 0.037638 -1.1974 -0.26052 -0.72752 -0.3797 0.68278 0.63878
out -0.18572 0.30092 0.36868 -0.92801 0.12335 0.60301 -0.26166 0.077357 -0.26929 0.12 0.39694 0.5988 0.26234 0.26443 0.50642 -0.1063 -0.014123 0.54449 -0.43429 0.0025775 0.85151 0.65793 0.83554 0.070638 0.30912 0.02096 -0.27513 -0.21501 -0.045399 -0.41673 -0.073663 0.29725 -0.0045201 0.13701 -0.32732 0.54573 -0.35412 -0.025978 -0.40114 0.12341 -0.77087 -0.058442 -0.006908 -0.65201 -0.22883 0.0005548 -0.46156 -0.13735 -0.10912 -0.47232 -0.28364 0.10187 -0.19427 1.3658 -0.59353 -2.9771 -0.012324 0.15727 1.9956 0.89 0.1126 1.0571 -0.33717 0.51669 0.6214 -0.039646 0.88343 0.35997 -0.20945 0.17748 0.043365 -0.51312 -0.21662 -0.9102 0.20956 0.39919 -0.54655 -0.14502 -0.81999 -0.020985 0.94665 0.21199 -0.72997 0.32408 -1.3573 -0.4944 0.43304 0.011635 -0.63794 -0.32431 -0.32448 -0.24412 -0.25455 -0.14941 -0.40866 -0.049368 -0.12796 0.43697 0.44212 0.27969
other -0.24211 0.50818 0.17431 -0.53048 0.3501 0.073978 -0.22706 -0.030032 0.062771 -0.18962 0.14141 -0.52596 0.22941 0.40335 0.088935 -0.23171 0.20858 -0.035073 -0.39422 0.42781 0.23424 -0.41532 0.46025 0.27109 0.069915 -0.43305 0.09186 -0.61606 -0.23359 0.26862 0.22462 0.23171 -0.64934 0.069331 0.24512 0.59737 0.19781 0.12867 -0.32702 -0.060648 -0.87321 -0.40892 0.058644 -0.36917 -0.16837 0.3064 -0.03892 -0.12069 -0.39722 -0.36063 -0.10863 0.0035632 0.025545 0.9086 -0.11305 -1.7753 0.04064 -0.39332 2.0438 1.0871 -0.53628 1.3211 0.40919 0.57779 0.82953 -0.05687 0.59288 0.40324 0.82516 -0.32087 -0.68111 -0.63115 -0.10051 -0.44106 0.25615 0.031669 -0.079954 -0.27123 -1.1283 0.13381 1.128 0.075743 -0.1783 0.34094 -2.2092 -0.054769 -0.32665 0.1464 0.066519 -0.39811 -0.32919 -0.32736 -0.21051 -0.055697 -1.2548 0.020434 -1.043 -0.44059 1.0769 0.32406
people 0.29019 0.80497 0.31187 -0.32706 -0.47237 1.1363 -0.37966 0.11569 0.41912 0.016284 -0.06543 -0.004047 0.77688 -0.24936 0.18817 -0.64008 -0.02027 -0.18528 -1.0651 0.69115 1.0472 0.36171 0.80863 -0.42767 -0.18299 -0.27847 0.43839 -0.023336 0.37359 -0.3588 0.47261 0.73946 0.015123 0.059862 -0.066841 -0.38842 0.22361 0.8057 0.33789 -0.052222 -1.1057 -0.1113 0.15101 -0.66649 -0.044992 -0.068159 0.098957 -0.55942 -0.78109 -0.50947 -0.37327 -0.75674 0.22583 1.2963 -0.48181 -1.818 0.38529 -0.21849 2.2418 0.20094 -0.35208 1.4893 -0.21701 -0.24615 0.55185 0.97224 0.58526 -0.029754 0.57944 -0.64798 -0.12371 -0.53459 -0.20528 -0.53599 0.30895 0.53935 0.11853 0.42749 -1.0872 -0.23409 0.73882 0.15749 -0.56642 0.16235 -1.9117 -0.019262 -0.50293 -0.17584 -0.53881 -0.39397 0.8133 -0.31654 0.25971 -0.48202 -1.4452 0.27419 -0.72652 -0.33603 0.45998 -0.11278
than 0.10305 1.2472 0.56724 -0.19117 -0.33626 0.43446 0.13137 0.10865 -0.30365 0.27153 0.28143 -0.070029 0.13069 -0.55749 0.65366 -0.73591 -0.28843 0.025475 0.045126 0.81985 1.1737 -0.023528 0.045885 0.081232 0.23694 -0.43013 -0.15377 -0.63078 -0.010964 -0.4923 0.40203 0.21917 0.060061 -0.4783 0.22343 0.61249 -0.1794 0.42189 -0.47547 0.23102 -0.42927 -0.67041 0.13216 -0.10817 -0.23242 -0.13758 0.60007 -1.0089 -0.23983 -0.79421 0.209 -0.6083 -0.05907 1.5629 -0.24259 -2.4183 -0.09008 -0.39131 2.014 0.62688 0.20731 1.137 -0.2814 0.067306 0.40942 -0.080047 0.66897 0.59008 0.80932 -0.32619 -0.10338 -0.44707 -0.20956 0.2248 0.036496 -0.12258 0.021003 -0.099487 -0.88655 -0.097359 0.89843 0.12676 -0.70422 0.29163 -1.4439 0.35709 0.48294 -0.044056 -0.021766 -0.47151 0.50925 0.11205 -0.17628 -0.50906 -0.9412 -0.05368 -0.57045 -0.25835 0.81651 0.089829
into -0.17864 0.14917 0.51219 -0.28412 0.62241 0.77864 -0.0061656 0.077297 0.24987 0.090217 -0.10688 0.38486 -0.091904 0.63615 0.24128 -0.22715 0.33536 0.50803 -0.27839 -0.43778 0.57114 0.59485 0.81121 0.19439 0.25663 -0.017158 -0.26403 -0.36531 0.072311 0.13406 -0.15923 0.46475 -0.49586 -0.43665 -0.078724 0.11747 -0.072248 0.17292 -0.24977 0.0006661 -0.66299 -0.79178 -0.49081 -0.20195 0.041452 0.52386 -0.34706 0.55373 0.3661 -0.32576 -0.43202 0.31898 0.21298 1.3474 -0.28075 -3.0516 -0.16904 -0.48603 2.5154 0.70632 0.089212 1.4163 0.07222 0.54876 0.83681 -0.031956 0.34991 -0.089393 -0.25961 0.0021854 0.19414 -0.56113 -0.027709 -0.86059 -0.14497 -0.12171 -0.39096 -0.25363 -0.66044 0.12262 0.78569 0.72031 -0.7325 0.43228 -0.93254 -0.088381 -0.10426 -0.34027 -0.28873 -0.4137 -0.0034137 0.20758 -0.93073 0.31037 -0.14008 -0.44965 0.21297 0.31481 0.52449 0.15522
last 0.23745 0.1241 0.6252 -0.46639 0.12238 -0.03638 0.63611 0.59247 -0.51344 0.06342 0.13814 0.15193 0.094313 -0.20548 0.023568 0.091028 -0.089488 -0.29624 -0.52466 -0.028628 0.87168 -0.16307 -0.06663 1.022 0.44789 -0.48008 -0.17092 -0.30576 -0.061999 -0.23902 0.25188 -0.018878 0.084057 -0.045508 -0.38034 0.45911 -0.4122 0.39722 -0.33249 0.031747 -0.54668 -0.093553 0.67786 0.006941 0.20718 0.075996 0.49682 -0.92707 0.3506 -1.0986 -0.074723 -0.62458 0.31857 1.2155 -0.47096 -2.9422 -0.76529 -0.11556 1.9006 1.0152 -0.49471 0.61459 -0.25465 -0.0065357 0.17702 0.14239 0.18148 0.69493 -0.028739 -0.083564 0.009709 -0.18764 -0.72949 -0.26976 -0.47262 0.23738 -0.38301 -0.017983 -1.4596 0.34242 0.83223 -0.1178 -0.28637 0.35349 -1.2153 -0.37696 0.36761 0.16653 -0.22993 -0.25607 0.19118 0.055805 -0.40315 0.43574 -0.82909 0.3665 -0.14267 0.30254 0.42477 -0.2106
some -0.14452 0.56023 0.2054 -0.26664 -0.25669 0.52548 -0.45982 0.21998 -0.013937 -0.24225 0.18083 0.071322 0.3837 -0.36641 0.51304 -0.37246 -0.19897 -0.055156 0.020737 0.70062 0.81707 -0.099955 0.16988 -0.25001 -0.269 -0.69777 -0.035842 -0.50822 -0.0059415 -0.32951 0.18912 0.084527 -0.43161 -0.028211 -0.19869 0.47913 0.064726 0.29788 -0.27285 0.12602 -0.96007 -0.45345 0.18871 -0.41984 0.046052 -0.24216 0.4794 -0.22272 -0.055945 -0.47897 0.090283 -0.059132 -0.24845 1.0303 -0.43041 -2.409 0.17499 -0.61541 1.8243 0.7712 0.24063 1.6522 -0.039428 0.51181 0.72804 -0.30182 0.81372 0.32864 0.6735 -0.39717 -0.45192 -0.038743 -0.11955 -0.21259 0.20072 0.29862 -0.030866 0.1832 -1.302 0.1952 1.1924 -0.38824 -0.33065 0.0014674 -1.7257 0.10662 0.31828 0.010223 -0.43216 -0.1543 0.22103 -0.14726 -0.49401 -0.41887 -1.0336 -0.34403 -0.77463 -0.36395 0.91609 0.82095
time -0.024221 -0.034855 0.3571 -0.02155 -0.54804 0.31822 0.012929 0.35174 -0.4169 -0.29411 0.63723 -0.14859 -0.015264 -0.35811 0.12395 -0.67468 0.28165 -0.006541 -0.41743 0.0056387 0.26789 0.18282 0.077023 0.23808 0.505 -0.24993 -0.029143 -0.50666 0.42215 -0.097988 -0.45997 0.37969 -0.12402 -0.19568 -0.12479 0.24071 -0.51656 0.44866 -0.040484 -0.41001 -0.55576 -0.26892 0.19317 0.089754 -0.27962 -0.1567 0.39276 -0.97373 0.44148 -0.97508 0.0028868 -0.29774 0.33367 1.5798 -0.047833 -2.9699 -0.41627 0.034471 1.6993 0.8347 -0.28926 0.85307 -0.23608 0.12667 0.99202 -0.18601 0.28053 0.085047 0.27694 -0.030098 -0.30514 -0.29668 -0.027471 -0.2722 0.13718 -0.12591 -0.43509 -0.70461 -0.89953 -0.15115 0.50439 -0.23954 -0.5216 0.12224 -1.467 0.21616 -0.071825 -0.022067 -0.15128 -0.55081 -0.28592 0.32269 0.19877 0.14663 -0.81213 -0.30295 0.19865 -0.087568 0.25961 0.050783
you -0.49886 0.76602 0.89751 -0.78547 -0.6855 0.62609 -0.39655 0.34913 0.33334 -0.45233 0.61223 0.075948 0.22531 0.16365 0.28095 -0.24758 0.0099009 0.71108 -0.75859 0.87423 0.0031041 0.35796 -0.35233 -0.665 0.38447 0.62677 -0.51543 -0.96653 0.61517 -0.75455 -0.012359 1.1188 0.35719 0.0071769 0.20255 0.5011 -0.44046 0.10661 0.79391 -0.80948 -0.015601 -0.22888 -0.34198 -1.0065 -0.8763 0.15165 -0.085339 -0.6465 -0.16733 -1.4499 -0.0065905 0.0048113 -0.012445 1.0474 -0.19381 -2.5991 0.40528 0.43803 1.9332 0.45814 -0.048819 1.4308 -0.78639 -0.20792 1.09 0.24816 1.1487 0.51481 -0.21832 -0.4572 0.13888 -0.26369 0.13647 -0.60539 0.099586 0.23344 0.13647 -0.1846 -0.047734 -0.18392 0.52719 -0.2885 -1.0742 -0.0467 -1.8302 -0.21197 0.0298 -0.30964 -0.43386 -0.36463 -0.32738 -0.0093427 0.47205 -0.51691 -0.59176 -0.32343 0.20052 -0.41179 0.40539 0.78504
years 0.42215 0.6307 -0.1291 -0.13564 0.027991 0.040876 0.40969 0.30895 -0.34683 0.18925 0.33076 0.12862 0.15791 0.28442 0.17781 -0.67706 0.32368 -0.10471 -0.5876 0.2144 0.1563 0.58578 0.18894 0.44344 0.49721 -0.41477 -0.053675 -1.0574 0.17635 -0.15017 0.30718 0.19948 -0.15068 -0.24098 -0.61483 0.57655 -0.17564 0.088882 -0.44189 -0.30435 -0.80766 -0.12871 0.46206 -0.097681 -0.014938 -0.076952 0.75957 -1.0992 0.28323 -0.61529 -0.26492 -1.1732 0.16747 1.5833 0.1703 -2.5473 -0.30474 -0.61114 1.5383 0.77721 -0.3246 1.0506 -0.28259 -0.0034328 0.63225 0.19016 0.55973 -0.13783 0.46362 0.20712 0.35268 0.081224 -0.51583 0.08999 -0.55038 -0.33437 -0.21391 -0.2848 -1.3404 -0.075459 0.9061 0.11474 -0.011783 0.67302 -1.3786 0.077233 -0.10002 -0.69415 -0.50691 -0.4123 0.00076566 0.011298 -0.20379 0.19438 -0.97726 0.11681 -0.59319 0.10446 0.18539 -0.47671
if -0.26269 0.6424 0.84803 -0.46166 -0.78775 0.12392 -0.19699 0.33939 0.50745 -0.16794 0.2822 0.50221 0.50103 -0.056929 0.055436 -0.18807 -0.24799 0.5064 -0.38288 0.45644 -0.068668 -0.40771 -0.18506 -0.21759 0.37901 0.37379 -0.25466 -1.0707 0.051377 -0.52884 0.22684 1.0321 -0.09049 -0.14477 0.14422 0.38818 -0.028345 0.11011 -0.13661 -0.71739 -0.6748 -0.37524 0.41628 -0.61854 -0.28223 -0.080765 0.2091 -0.60179 -0.4395 -0.99147 0.37749 -0.15041 0.3967 1.0448 -0.18732 -2.5452 0.22148 -0.084821 2.1498 0.7196 -0.21856 0.58986 -0.37576 0.010633 1.3017 0.34235 0.82135 0.69752 -0.25845 -0.14904 0.025952 -0.78131 -0.041111 -0.46884 0.6883 -0.26664 -0.14099 -0.56311 -0.74742 0.052375 0.84862 -0.49856 -1.1366 -0.049778 -1.5672 -0.26742 0.30891 0.25077 -0.16476 -0.75252 -0.46173 -0.37488 -0.26175 0.045545 -0.51906 0.055513 0.35398 0.2759 0.22535 0.23229
no -0.013767 0.33247 0.59895 -0.51561 -0.56201 0.12329 -0.13417 0.26011 0.65116 0.024565 0.3199 0.49118 0.30762 0.53333 0.68015 -0.25419 -0.068138 0.2639 -0.35963 0.47576 0.36392 0.23684 -0.24312 -0.52684 0.15305 0.032089 -0.11053 -0.71643 -0.026425 -0.41872 0.18218 0.084099 -0.1888 0.22899 0.30495 0.45337 0.27868 0.054886 -0.046348 0.14313 -0.48341 0.27654 0.53848 -0.66876 0.13568 -0.45659 0.20602 -0.67056 -0.65926 -1.0911 0.24557 -0.14213 0.086415 0.85842 -0.016081 -2.7815 0.40608 -0.094489 1.7776 0.85032 -0.34224 0.39772 -0.83966 0.13606 1.1896 -0.17331 0.71848 0.042783 -0.24022 0.07143 -0.41633 -0.39236 0.2579 -0.64804 0.64845 0.47344 0.036004 -0.39083 -1.3795 -0.084084 0.81972 -0.70089 -0.22854 0.23514 -1.5969 -0.19316 0.4004 -0.050473 0.081279 -0.32571 0.1183 -0.51485 -0.062061 0.041302 -0.49174 -0.057086 -0.60485 -0.67428 0.51495 0.34287
world 0.49177 1.1164 1.1424 0.14381 -0.10696 -0.46727 -0.44374 -0.0088024 -0.50406 -0.20549 0.5091 -0.60904 0.2098 -0.44836 -0.70383 0.21516 0.66189 0.3462 -0.89294 -0.48032 0.43069 0.35697 0.84277 0.52344 0.82065 0.00053183 0.24835 -0.20887 0.81657 0.25048 -0.74761 -0.011309 -0.47481 0.06452 0.54517 0.20714 -0.46237 1.0724 -1.0526 -0.15567 -0.79339 -0.028366 0.10138 -0.20909 0.45513 0.4733 0.68859 -0.2384 -0.055178 -0.83022 -0.47127 0.22713 0.042651 1.1273 -0.084776 -3.0378 -0.18389 0.78244 1.6395 0.76146 -0.14258 0.65115 -0.013549 -0.51465 0.66951 -0.34464 -0.14525 0.49258 0.80085 -0.54971 0.39657 -0.48571 -0.43846 0.3318 0.10356 -0.028987 0.10896 -0.45671 -1.115 -0.082366 1.0186 0.030639 -0.37162 1.0742 -1.0642 -0.20298 -0.98434 -0.3204 0.15969 -0.1791 0.21325 0.47155 0.68247 0.13784 -0.10704 -0.18294 -0.40082 -0.50885 0.62556 0.43917
can -0.71766 0.80871 0.31868 -0.53589 -0.31998 0.18929 -0.23241 0.44233 0.25649 -0.32093 -0.16951 0.14993 0.55681 0.33992 0.028335 -0.38295 0.43366 0.73026 -0.79863 0.2954 0.017078 -0.39545 0.19967 0.081727 0.18943 0.095973 -0.033138 -0.69888 0.41562 -0.67422 -0.059873 1.23 -0.31391 0.15313 0.82508 0.49345 -0.051686 0.31035 0.25147 -0.36228 -0.14969 -0.39609 -0.73853 -1.0716 -0.21775 0.23018 0.078188 -0.48584 -0.082414 -1.0405 0.44389 -0.2964 0.036505 1.2115 0.50287 -2.2662 -0.073575 0.010925 1.7266 0.63332 -0.23215 1.2603 -0.43585 -0.082693 1.1903 0.34009 0.59365 0.20098 0.1016 -1.1757 -0.1187 -0.59569 0.34427 -0.48687 0.34953 -0.44521 -0.13131 -0.19316 -0.55304 0.075953 0.6893 -0.26706 -1.1425 -0.4221 -1.9038 0.028733 0.79527 -0.05133 -0.028824 -0.35704 -0.72769 0.19074 -0.026097 -0.48544 -0.225 0.025487 0.27732 -1.0023 0.8588 0.28583
do -0.17047 0.4037 0.21069 -0.89495 -1.0974 0.26637 -0.66438 0.43423 0.43604 -0.096505 0.17299 -0.043644 0.25197 0.37532 -0.3742 -0.31528 0.15621 1.0254 -0.69791 0.85064 0.29749 0.2582 0.037544 -0.29904 -0.48232 0.24501 -0.42231 -1.213 0.65729 -0.66008 -0.20341 0.49007 0.21975 -0.015368 0.2685 0.75017 0.066525 0.22781 0.36977 -0.43185 -0.17637 0.19282 -0.5611 -0.83103 -0.93903 -0.037231 0.20521 -0.67886 -0.75606 -1.4499 0.024081 0.13546 -0.33894 0.9505 0.023876 -2.3589 0.25861 0.027507 1.7216 0.45003 -0.38897 1.1423 -0.7378 -0.57465 1.2876 0.6925 0.93593 0.57175 -0.23874 -0.48673 0.090969 -0.51457 0.21292 -0.85689 -0.055736 -0.20015 -0.3957 0.061003 -0.45949 -0.057818 0.7602 -0.55281 -0.96297 -0.086508 -2.036 -0.2284 0.061782 0.1475 -0.19664 -0.50653 -0.16682 -0.29811 0.10284 -0.4235 -0.71824 0.045687 -0.21338 -0.67179 0.31645 0.50594
only -0.14166 0.62942 0.57058 -0.040109 0.02072 0.45121 0.26174 0.34943 0.1109 -0.36037 0.35116 0.054917 0.35091 -0.16997 0.46228 -0.39724 0.19025 0.31776 -0.2807 0.54674 0.61512 -0.18724 0.19859 0.16014 0.20327 -0.57256 -0.1346 -0.66692 0.16478 -0.27554 -0.056533 0.78158 -0.0020976 -0.01123 0.2442 0.69785 -0.24226 0.3075 -0.41023 0.098434 -0.51658 0.011216 0.44111 -0.2839 0.30369 -0.24598 0.78145 -0.48708 -0.22522 -0.75786 -0.064799 -0.087682 -0.077229 1.3044 -0.17245 -2.7213 -0.35306 -0.33959 1.6545 0.84517 -0.18675 0.57979 -0.31977 0.37098 1.0342 -0.026049 0.47004 0.4676 0.035356 -0.063601 -0.30439 -0.49438 0.46235 0.015311 0.60372 0.27612 -0.4291 -0.29407 -0.96331 -0.14686 0.65568 -0.13284 -0.42279 0.10513 -1.4623 -0.071751 0.56444 -0.052735 0.25655 -0.055966 -0.27185 -0.071298 -0.12923 -0.062932 -0.77035 -0.041691 -0.32776 -0.44814 0.44719 0.2194
could 0.05869 0.40273 0.38634 -0.58888 -0.24626 -0.31042 0.01324 0.075456 0.22054 0.064226 -0.28233 0.69801 0.39535 -0.10333 -0.084886 -0.49865 0.23266 0.59157 -0.75346 0.075669 0.43555 -0.32304 0.51099 0.1227 0.010213 -0.17402 -0.53118 -0.59124 0.21893 -0.39508 0.10967 0.64653 -0.32986 0.20875 0.31209 0.3969 0.23556 0.14959 0.044618 -0.039851 -0.67002 -0.26655 -0.22886 -0.75891 0.023181 0.064913 0.6395 -0.511 0.14996 -1.3028 0.13912 -0.048588 0.011077 1.2961 0.33386 -2.5705 -0.28144 -0.20408 1.6794 1.0534 -0.24247 1.0631 -0.39964 0.15578 1.1181 0.19073 0.44355 0.59406 -0.34413 -0.89059 0.2529 -0.84498 -0.021412 -0.53437 0.16315 -0.357 -0.13122 0.057807 -0.81308 0.47248 0.91395 -0.31517 -0.80876 -0.25029 -1.9391 -0.66841 0.77363 0.21205 -0.17103 -0.44721 -0.25471 -0.21399 -0.27142 -0.45612 -0.40669 0.15552 0.41519 -0.35974 0.43718 0.10121
us 0.3309 1.0111 1.5401 -0.0037205 -0.16854 -0.36448 -0.49264 -0.27382 0.042796 -0.10149 0.82923 -0.21641 0.18006 0.22698 0.014333 0.26679 -0.17742 -0.35467 -0.61956 0.81431 1.208 -0.064785 0.11816 0.19243 -0.026561 0.28291 0.18635 -0.63154 1.008 -0.33754 0.031217 0.55929 -0.34031 -0.038397 -0.086859 0.70105 -0.475 0.12132 0.38364 0.31194 -0.77032 -0.84787 0.00012489 0.23546 0.37578 -0.17466 -0.68517 -0.34409 -0.60872 -1.6763 0.1537 -0.067015 0.74586 1.1758 -0.5217 -2.4951 0.31104 -0.42603 2.1117 0.018723 0.40115 0.41757 -0.21425 -0.19927 -0.5357 0.093413 -0.042322 1.0767 0.10693 0.38199 0.34468 -0.43743 -0.77398 -0.42631 0.23625 -0.075068 0.51797 0.43557 -1.4849 0.1453 1.0455 -0.15742 -0.094204 0.5251 -1.1266 0.20811 0.22303 0.23587 0.081314 -0.80265 0.037458 0.25518 -0.36446 -0.81031 -0.49818 0.037837 0.25238 0.030629 0.59237 0.41334
so -0.39551 0.5466 0.50315 -0.63682 -0.4547 0.30889 -0.04924 0.27191 0.31562 -0.32879 0.25089 0.14508 0.35136 -0.22793 -0.15894 -0.51527 -0.27978 0.3647 -0.39425 0.33299 0.43051 0.183 0.25095 -0.18547 0.34698 0.055137 -0.45979 -0.82963 -0.018523 -0.36772 0.045566 0.71052 -0.022782 -0.080889 0.20685 0.49855 -0.059794 -0.0080048 -0.23823 -0.33759 -0.24201 -0.23788 -0.0011362 -0.40395 -0.44859 -0.32189 0.48405 -0.027999 0.10148 -0.93585 -0.087522 -0.39959 0.36545 1.3726 -0.30713 -2.594 0.22431 -0.041168 1.7765 0.4001 -0.10996 1.4178 -0.26154 0.18617 0.79328 -0.11709 0.87541 0.43911 0.34711 -0.28515 0.076269 -0.63038 0.16408 -0.37053 0.58485 -0.15472 -0.26382 -0.1859 -0.75228 -0.15752 0.78539 -0.018846 -0.8013 0.15561 -1.8624 -0.16969 0.19419 -0.30683 -0.78067 -0.49689 -0.18256 -0.042016 -0.2629 0.058531 -0.44664 -0.099765 -0.4305 -0.23693 -0.014519 0.31981
them -0.10131 0.10941 0.24065 -0.66767 -0.18687 0.91068 -0.49355 0.22234 -0.00068759 -0.2633 0.35566 0.25153 0.2762 0.25009 0.58282 -0.63401 0.047375 0.18918 -0.82015 0.68126 0.20599 -0.39743 0.66879 -0.19695 0.0072995 -0.45157 -0.44265 -0.66212 0.39773 -0.27854 0.24966 0.29716 -0.41428 -0.19447 0.11666 0.29235 -0.05677 0.051592 -0.32637 -0.4391 -0.77075 -0.18956 -0.20683 -0.66622 -0.091887 -0.039072 -0.27523 0.17081 -0.5802 -0.6876 -0.079209 0.2897 -0.097517 1.8687 -0.27563 -2.1903 0.35603 -0.37762 1.9264 0.21876 -0.21676 1.5126 -0.21941 0.33431 0.47717 0.022636 1.1532 0.86151 0.0051738 -0.1659 -0.30709 -0.43137 0.084986 -0.67329 0.27454 0.48618 -0.555 -0.21077 -0.72292 -0.046827 1.0762 0.17047 -0.8775 0.4648 -1.5632 -0.092291 0.19847 0.20053 -0.55668 -0.07711 -0.2355 -0.55851 0.15774 -0.61762 -0.93783 -0.75155 -0.5933 0.2568 0.61547 0.19253
what -0.1518 0.38409 0.8934 -0.42421 -0.92161 0.037988 -0.32026 0.0034119 0.22101 -0.22045 0.16661 0.21956 0.25325 -0.29267 0.10171 -0.075491 -0.060406 0.28194 -0.58519 0.48271 0.017504 -0.12086 -0.1099 -0.69554 0.156 0.070558 -0.15058 -0.81811 -0.18535 -0.36863 0.03165 0.76616 0.084041 0.0026928 -0.2744 0.21815 -0.035157 0.32569 0.10032 -0.60932 -0.70316 0.18299 0.33134 -0.12416 -0.90542 -0.039157 0.44719 -0.57338 -0.40172 -0.82234 0.5574 0.15101 0.24598 1.0113 -0.46626 -2.7133 0.43273 -0.16314 1.5828 0.55081 -0.24738 1.4184 -0.016867 -0.19368 1.009 -0.059864 0.91853 0.43022 -0.20624 0.076127 0.21595 -0.26834 -0.33342 -0.37151 0.45197 -0.08246 0.32984 -0.57376 -1.3042 0.27121 0.66277 -0.079626 -0.79167 -0.0053662 -1.7916 -0.33298 -0.30698 -0.3398 -0.55618 -0.69471 0.27427 -0.21898 -0.26714 0.0022561 -0.50178 -0.32775 -0.4567 -0.27123 0.22157 0.92112
him 0.042409 -0.52195 0.40389 -0.31683 0.015581 1.1447 -0.18197 -0.061639 -0.33253 -0.40223 0.034373 0.41981 0.031487 -0.080156 0.22563 -0.3658 0.18513 0.17092 -0.6947 0.64301 0.053546 -0.45991 -0.17761 -0.19595 0.4256 0.042524 -0.70944 -0.92625 1.2065 0.14414 0.14133 0.68685 0.048357 0.28694 -0.40552 0.75591 -0.79224 -0.045448 -0.35752 0.14998 -0.9691 0.15583 0.7813 -1.0131 -0.39037 0.053001 0.0077983 -0.16409 -0.055156 -0.78147 -0.1504 0.23792 0.29348 1.8954 -0.44203 -2.7568 -0.13436 -0.30857 1.3768 0.49351 0.15503 1.206 -0.51755 0.42908 0.32301 -0.25093 1.4077 0.99191 -0.34695 0.4574 -0.45169 -0.27574 -0.040537 -0.69482 0.16941 0.17086 -0.40722 -0.1175 -0.51941 0.0846 0.88102 0.30067 -0.64169 -0.28448 -1.2321 -0.3771 0.13661 0.38983 -0.58003 -0.69147 -0.12045 -0.72923 0.41652 -0.11802 -0.21631 -0.72523 -0.27257 0.21283 0.13566 -0.068467
during -0.27891 -0.22974 -0.47454 0.068965 -0.29366 0.16081 0.56102 0.73436 -0.73745 -0.10254 -0.090765 -0.61136 0.36932 0.38535 0.35548 -0.37326 -0.15222 -0.50306 -0.59458 -0.47526 0.40403 -0.34318 0.18504 0.57305 0.22752 -0.19725 -0.49467 -0.1684 0.874 0.01405 -0.27933 0.11743 0.12937 0.039187 -0.23168 0.4281 -0.12645 0.37137 -0.32466 -0.08876 -0.55695 -0.27712 0.35221 0.61908 0.29789 0.099367 0.77284 -0.94009 0.6737 -1.043 -0.056255 -0.06086 0.58809 1.3481 -0.0069607 -2.5155 -0.56072 -0.61131 1.7696 1.0041 -0.79759 1.3624 0.093775 -0.026866 0.69347 -0.10853 0.16738 -0.81752 0.41267 0.30658 0.032399 -0.3848 -0.10894 0.00077002 -0.60538 0.068719 -0.60942 0.33904 -1.2881 0.064366 0.85468 0.23217 0.057541 0.57282 -1.3892 0.27166 -0.37663 -0.095078 -0.12274 -0.46974 0.31321 -0.14088 -0.12172 0.99531 -0.42987 -0.19791 -0.17884 0.42433 0.14577 -0.59513
before 0.36281 -0.18559 0.46119 0.072988 -0.093083 0.50692 0.42306 0.69663 -0.10936 -0.36433 0.8099 -0.19089 0.21541 0.27386 0.59262 -0.70742 0.11229 0.21436 -0.50418 -0.59406 -0.11661 -0.22116 0.25401 0.16651 0.44469 0.3437 -0.50661 -0.56653 0.37932 0.10637 -0.34629 0.12174 -0.27635 -0.14158 -0.34986 -0.23913 -0.43585 -0.18304 -0.34334 -0.3378 -0.86635 -0.50164 0.4578 -0.002006 0.02822 0.093612 0.2848 -0.87453 0.35247 -0.97725 0.22705 -0.052187 0.26154 1.6054 -0.69212 -2.6977 -0.69524 -0.19921 1.8225 0.86595 -0.51825 1.0439 -0.015672 0.16532 0.46015 0.056994 0.22914 0.36015 -0.11452 0.021205 -0.35505 -0.16756 -0.26181 -0.91036 -0.36393 0.10294 -0.45547 -0.27404 -0.83145 -0.084725 0.61138 -0.12894 -0.35169 0.16639 -1.1824 -0.38447 0.22745 -0.015933 -0.26651 -0.38409 -0.072182 -0.32193 -0.34742 0.69 -0.76737 0.0086468 0.53689 0.6996 0.35549 -0.24589
since 0.42261 0.30945 0.21854 0.031845 0.071375 -0.094332 0.41375 0.091462 0.068421 -0.0091774 0.11548 -0.29799 0.71572 0.26885 0.15715 -0.11581 -0.052275 -0.14545 -0.4396 -0.057754 0.39526 -0.0046843 0.41918 0.63758 0.54708 -0.45561 -0.22062 -0.76163 0.20543 -0.0974 0.52762 0.39617 -0.17724 0.057669 -0.37362 0.15077 -0.2588 0.51701 -0.7923 -0.57228 -0.43158 -0.0066014 0.61488 0.24314 0.30344 -0.11533 0.85285 -0.86439 0.52463 -0.93728 -0.12563 -0.23571 0.24105 1.5613 0.024711 -2.6511 -0.47651 -0.24653 1.7767 0.74858 -0.6595 0.7267 -0.15321 0.11986 0.82973 0.36084 0.055967 0.099942 0.71003 0.45763 0.11246 -0.08918 -0.82032 0.12385 -0.553 -0.39812 -0.060371 -0.022127 -1.2908 0.28121 0.73203 -0.27482 -0.40098 0.6011 -0.78143 0.29783 0.14597 -0.21302 -0.58773 -0.35827 0.054432 0.26549 -0.74025 0.8275 -0.86179 0.45864 -0.17767 0.3984 0.14492 -0.55325
while 0.094157 0.46457 0.4535 -0.15074 0.27223 0.4545 -0.14906 0.15345 -0.061775 -0.080787 0.53914 -0.39179 0.083668 -0.10328 0.27425 -0.80995 -0.11588 -0.32288 -0.23434 0.19782 0.47749 0.027463 0.49629 0.41455 0.55198 0.13814 -0.14193 -0.65181 -0.055301 -0.026074 -0.26557 0.16076 -0.32292 -0.10203 0.08234 0.13615 0.27754 0.19405 -0.2348 -0.12201 -0.39889 -0.6782 0.42633 0.21963 -0.20309 0.16836 0.013425 -0.35281 -0.069011 -0.93563 0.16361 -0.13117 0.099808 1.8998 -0.26605 -2.4321 -0.34386 -0.46084 1.3691 0.72702 -0.18504 0.18016 0.085648 0.46807 0.12802 0.28034 0.68951 0.36221 0.66845 0.32295 -0.58005 -0.27069 0.15057 -0.46084 -0.21336 0.36952 -0.23539 0.075712 -0.71302 -0.27551 0.64845 0.10345 -0.64706 0.29101 -1.4154 -0.31586 -0.26086 0.24959 -0.20852 -0.28688 -0.075658 -0.63833 -0.0040848 0.21971 -0.91796 0.271 -0.30677 -0.23741 0.69147 -0.16581
where 0.051044 0.59824 0.31195 -0.066913 -0.29111 0.46091 -0.27781 0.44026 0.044429 -0.22897 0.20414 -0.1458 0.77876 0.28536 0.32293 -0.42382 0.46866 -0.068769 -0.57332 0.02484 0.18865 -0.25324 0.63914 -0.22605 -0.094128 -0.33878 -0.027334 -0.97173 0.22157 -0.45171 -0.42427 0.11795 0.21835 0.59762 0.083504 0.03862 0.21675 -0.011594 0.15081 -0.33137 -0.34324 -0.36142 0.17621 -0.47619 0.11287 0.063469 0.23026 -0.10055 0.4327 0.14464 -0.3986 -0.26808 0.3182 1.187 -0.53799 -2.7762 -0.36056 -0.52403 1.4961 0.5852 -0.45835 0.90748 0.19071 -0.083699 1.1361 0.18972 0.66498 0.19299 0.52448 0.42907 -0.12227 -0.63509 0.34567 -0.27887 0.20995 -0.10872 0.57247 -0.14223 -0.76988 0.20549 0.697 0.031403 -0.82066 0.00055807 -0.95539 -0.24125 -0.14125 -0.39647 -0.15662 -0.1668 0.16383 -0.2677 -0.077713 0.46474 -0.82278 0.18345 -0.33744 0.058495 0.72002 0.34357
because 0.067634 0.41595 0.58451 -0.58491 -0.72451 -0.072752 -0.37836 0.0066186 0.4461 -0.15757 -0.12945 0.14262 0.6791 -0.29128 0.13926 -0.33211 -0.24274 0.27152 -0.0022924 0.41131 -0.10664 -0.20937 0.24291 0.21721 0.21121 0.08819 -0.34199 -1.0019 -0.04584 -0.19437 0.39427 0.60687 -0.069932 -0.21877 -0.022186 0.46304 0.16068 0.28462 -0.25492 -0.34909 -0.63743 -0.17272 0.32558 -0.31776 -0.11402 -0.092384 0.67199 -0.38248 -0.10641 -0.99178 0.25119 0.020442 0.14007 1.0752 0.0086798 -2.5789 -0.018486 -0.27098 2.0873 0.54331 -0.37876 0.64635 0.095271 0.1932 0.97416 -0.1454 0.77525 0.062012 0.16309 -0.12143 -0.11721 -0.5531 0.12182 -0.040885 0.2784 -0.031441 0.062561 -0.22321 -0.94733 0.35743 0.80591 -0.22318 -0.82193 0.13669 -1.8634 -0.24686 -0.13698 0.11041 -0.56013 -0.43488 -0.29646 -0.52113 -0.16884 0.24752 -0.5443 0.25473 -0.16929 0.058011 0.30037 -0.011096
now -0.014495 0.59107 0.70469 -0.40429 0.18782 0.12694 -0.14758 0.34587 0.22103 -0.28488 0.35046 0.064137 0.59154 0.11654 0.039906 -0.80121 0.3754 0.29344 -0.10369 0.27907 0.19986 0.68369 0.37554 -0.0072725 0.047113 -0.25263 0.0082005 -0.69781 -0.0068522 -0.21435 -0.12159 0.65265 0.061688 -0.064054 0.22297 0.50536 -0.15272 -0.061132 0.1619 -0.5441 -0.51882 -0.27868 0.15457 -0.53929 -0.099526 0.080574 0.65259 -0.37347 0.11975 -0.69007 0.090121 -0.55768 0.056925 1.2212 -0.19242 -2.6716 -0.32075 -0.37684 1.2959 0.66362 0.088504 0.59448 -0.063146 -0.084163 0.82726 0.31584 0.57423 0.52881 0.066457 0.20286 0.56204 -0.48379 -0.45163 -0.21738 0.12476 -0.44268 0.018879 0.17531 -0.90884 -0.21879 0.68435 -0.1656 -0.70718 0.10911 -1.2717 -0.15881 -0.084324 -0.39182 -0.22881 -0.15462 0.04707 -0.38092 0.062735 -0.00020286 -0.83754 0.20597 0.079004 -0.3428 0.73813 0.59255
like -0.2687 0.81708 0.69896 -0.72341 0.091566 0.19557 -0.52112 -0.24313 -0.44701 -0.27039 -0.34126 -0.46898 0.42583 0.46289 0.17106 -0.26795 0.23162 0.46568 -0.31808 0.75875 0.31857 0.64124 0.067042 -0.18517 0.49996 0.36964 -0.31172 -0.73098 -0.26902 -0.32058 0.23394 0.24276 0.1426 -0.2793 0.38823 0.42398 0.1021 0.33316 0.3015 -0.52711 -0.024475 -0.15301 -0.3224 -0.51231 -0.5525 0.29819 0.10847 0.052334 -0.2298 -0.77889 -0.08928 0.48109 0.015368 0.92544 -0.26122 -2.4759 -0.019825 0.58281 1.306 0.73512 -0.34372 1.5829 -0.10814 0.11388 0.7922 0.18347 1.2232 0.35697 0.17504 -0.16527 -0.012827 -0.47918 -0.32111 -0.40573 -0.37151 0.086323 0.25172 -0.082751 -0.25584 -0.19178 1.0474 -0.51984 -0.71463 0.38827 -1.6722 0.015986 -0.22668 -0.26602 -0.57925 -0.85651 0.20543 -0.46372 -0.065652 -0.061944 -0.57233 -0.46406 -0.41405 -0.4011 0.74657 0.31122
between 0.082441 -0.04076 0.52517 0.89712 -0.013364 -0.018666 0.16234 -0.015578 -0.30225 -0.37165 -0.051907 -0.14994 0.83097 0.54099 1.3509 -0.48953 -0.027815 -0.69868 -0.72504 -0.1469 0.61718 -0.6528 0.68797 0.013025 0.65707 -0.80827 0.2009 -0.2751 0.15607 -0.27864 -0.14049 0.48614 0.57921 -0.90647 -0.30117 0.55824 0.49224 0.36134 -0.38736 0.067848 -0.23191 -0.75179 -0.07839 -0.38973 -0.27977 -0.41476 0.25365 -0.46669 -0.14841 0.24835 -0.21373 0.25886 0.074922 1.3842 -0.092394 -2.6848 -0.185 -0.85553 1.687 0.58661 -0.47027 0.93776 -0.19932 -0.087569 0.19558 0.88214 0.33803 0.3977 0.88468 0.073823 0.16302 -0.23988 0.018631 -0.28011 0.4174 -0.48329 0.56282 -0.34626 -0.98178 0.35743 0.58303 0.32318 0.028338 0.36296 -0.88524 0.48406 -0.55206 0.18507 0.016378 -0.43148 -0.53805 0.4495 -1.2263 0.48146 -0.47856 0.084133 -0.43795 0.27416 0.80937 0.19743
just 0.075026 0.39325 0.90314 -0.30451 -0.32768 0.5963 0.22834 0.59028 0.13495 -0.26515 0.77353 0.22579 0.099035 -0.30459 0.66393 -0.33059 -0.23244 0.50205 -0.41178 0.48518 0.81604 0.79918 0.15908 -0.39856 0.30397 0.16379 -0.50475 -0.41057 0.15685 -0.63114 -0.35185 0.65554 0.53268 -0.18448 -0.068132 0.22603 -0.33779 0.17877 0.10681 0.0042481 -0.38168 -0.34329 0.19398 -0.58059 -0.31946 -0.073714 0.48785 -0.18261 0.012377 -1.0071 0.043909 -0.44222 -0.17537 1.3441 -0.64945 -2.9087 -0.35697 -0.013799 1.5677 0.7974 0.099162 1.0972 -0.70742 0.0083953 0.44134 0.085282 0.82608 0.33661 -0.21601 -0.065609 -0.13995 -0.34545 0.045238 -0.29333 0.15719 0.12832 -0.1509 -0.0070848 -0.48914 0.060983 0.40143 0.12505 -0.67478 -0.049925 -1.3447 -0.24093 0.33254 -0.084075 -0.14705 -0.41043 0.181 0.096809 -0.2399 -0.05232 -0.9476 -0.041478 0.02727 -0.18816 0.46636 0.66819
day -0.36689 0.4154 0.13478 -0.17841 -0.4005 0.20647 0.42742 1.129 -0.83981 -0.47955 0.021115 -0.18319 0.24588 -0.029048 0.29683 -0.44613 0.17493 -0.16619 -0.49573 -0.026547 0.76369 -0.2081 0.26494 0.33085 0.57039 0.12832 -0.28324 0.078652 0.3833 -0.074012 -0.56725 -0.25826 0.14013 0.11077 -0.21629 0.40637 -0.4574 0.27936 0.16717 -0.16388 -0.69184 -0.31493 0.65592 -0.0022426 -0.016975 0.10777 -0.18928 -0.77079 0.24333 -1.1467 0.12931 -0.59668 0.5235 1.0476 -0.83517 -2.6268 -0.32837 0.24767 2.1535 0.60561 -0.54019 0.99737 -0.18484 -0.47044 -0.019265 0.34195 0.31006 -0.31499 0.2999 -0.37647 -0.10041 -0.48373 -0.38982 -0.34424 -0.12195 0.58945 -0.15675 -0.33774 -1.0446 -0.037927 0.38237 -0.063733 -0.1299 0.12899 -1.4625 -0.22875 -0.3641 -0.10337 0.23737 -0.23498 0.15801 0.038339 0.013424 0.32535 -1.1755 0.049695 0.57227 0.02438 0.22106 0.43169
country -0.10935 0.57109 0.98214 -0.070305 0.27466 0.13901 -0.6725 0.49899 0.21726 0.57449 -0.43821 0.13026 0.25537 -0.062223 -0.52117 -0.19787 0.67209 -0.43658 -0.59177 0.063773 0.46073 0.66708 1.1919 -0.19182 -0.13415 -0.045557 0.052066 -0.37631 0.49671 0.13239 0.22187 0.12634 0.34833 0.096496 0.28304 0.26515 0.41935 0.27191 -0.78991 -0.57656 -0.97647 0.23095 0.48374 0.031668 0.33351 -0.027533 0.61034 -0.4384 0.0063261 -0.97056 -0.71083 -0.1317 -0.047665 1.1634 0.035339 -2.5317 -0.21682 0.082702 2.1301 0.59453 0.1801 0.30265 -0.12746 -0.6372 0.68515 0.51137 0.19605 0.22645 0.84234 -0.45817 0.30016 -0.28873 -0.64023 -0.034291 0.66036 -0.090798 -0.32405 0.28764 -0.9558 0.057511 1.1268 0.262 -0.23766 0.33101 -0.71519 0.037798 -0.40321 -0.11256 -0.37912 -0.43801 -0.14248 0.21925 -0.35928 -0.032169 -1.2293 0.20613 -0.20616 -0.5839 0.66622 0.22983
under -0.16233 0.064641 0.25104 -0.29753 0.12446 0.44832 -0.15541 0.41082 -0.68921 0.053858 0.64758 0.17853 0.4678 0.091596 0.47106 -0.90884 0.61552 -0.11448 -1.1831 -0.51489 -0.20773 0.22871 0.5811 0.063037 0.073553 -0.5261 -0.12066 -1.0567 -0.18102 -0.42476 0.4859 0.21258 -0.061614 -0.2823 -0.39257 0.85038 0.47131 -0.25344 -0.22843 -0.013176 -0.33015 0.0912 0.48117 0.16644 0.393 -0.072641 0.052517 0.082093 -0.40998 -0.68432 0.059367 0.20268 0.22247 1.3724 -0.15495 -2.5308 -0.22164 -0.5603 2.0696 0.24326 0.40051 0.50073 -0.80326 0.53268 0.73615 -0.079616 0.068064 0.1743 0.082143 0.28415 0.11307 -0.41879 0.004954 -0.19094 -0.30233 0.012008 -0.67887 0.22035 -1.0438 -0.27316 1.281 -0.17488 -0.40005 0.73022 -0.76195 0.46083 0.0049315 -0.46435 0.076681 -0.22224 0.107 -0.5882 -0.60688 0.50566 0.36358 0.058679 -0.46584 -0.23457 0.35065 -0.63155
then -0.094451 -0.0096052 0.1793 -0.077098 0.25498 0.62439 0.2061 0.61494 0.1499 -0.2032 0.63693 0.074645 0.35557 0.63381 0.53686 -0.32466 0.14173 0.47781 -0.6301 -0.36406 0.20606 -0.16101 0.38031 0.074027 0.36054 0.19276 -0.58823 -0.52623 0.59063 -0.36221 -0.2353 1.3069 -0.22175 0.11336 -0.16082 0.11355 -0.22383 -0.057228 0.063944 -0.34529 -0.8328 -0.72404 0.025328 -0.58935 0.038914 0.26117 0.037438 -0.31577 0.50425 -0.5781 -0.26901 0.018209 0.44694 1.5009 -0.26079 -2.6008 -0.66205 -0.06467 1.2872 0.89879 0.087995 0.69217 -0.25677 0.36561 0.95983 -0.27552 0.36748 0.50315 0.050824 0.42015 -0.17387 -0.26397 0.16468 -0.53577 -0.027637 -0.032541 -0.30834 -0.21001 -0.40584 0.038996 0.57417 0.065325 -1.0168 -0.14231 -1.1527 -0.50446 0.31685 -0.44061 -0.10737 -0.44433 -0.34734 -0.63747 -0.36261 0.44908 -0.71896 -0.076308 0.30626 0.21709 -0.046804 0.13551
company 0.60631 -0.37365 -0.31874 0.030332 0.18667 -1.1275 0.18433 0.16875 -0.20626 0.0087478 0.86313 -0.25189 0.40721 -0.51964 -0.79094 -0.72724 1.0097 -0.11107 0.42026 0.16993 0.076219 -0.11326 0.23855 0.41726 -0.57761 -0.14314 -0.19051 0.33742 -0.49969 -0.28331 0.25436 1.5028 -0.50439 -0.68896 -0.42216 0.46763 0.34395 0.00036374 0.26785 -0.71838 0.73955 -0.1161 -0.48352 -0.21261 -0.11326 0.59394 -0.26361 -0.25681 0.28549 -0.85409 -0.24955 0.087372 0.3393 0.86974 -0.37837 -2.4103 -0.67233 -0.39496 2.2253 0.444 0.73806 -0.23085 0.0014253 0.63356 0.2074 -0.351 0.66789 0.74544 0.42554 0.40073 -0.14964 0.37755 -0.66066 -0.47359 0.39401 -0.34221 0.4854 -0.34195 -1.7212 0.41925 0.75561 -0.29337 -0.35955 1.059 -1.3379 -0.85894 0.074892 -0.5918 -0.1528 -0.44238 0.096469 -0.538 -0.049649 -0.47351 -0.27107 0.62337 -0.11412 -0.35592 1.0019 0.14789
group 0.060976 0.38679 -0.25953 -0.45005 0.63819 0.35468 0.36497 -0.0064529 -0.49058 0.32951 0.86002 -0.5863 0.38647 -0.27503 -0.48817 0.27045 0.158 -0.91305 0.17947 0.11964 0.66995 -0.50165 0.43762 0.33298 -0.67132 -0.25389 0.14377 0.3523 0.16418 -0.16632 -0.11202 0.76496 -0.44687 0.11007 0.52306 -0.19121 0.69482 1.2401 0.10421 -0.63267 -0.59908 0.19479 0.12724 -0.037123 0.21433 -0.23203 -0.51001 1.0355 -0.32743 -0.21527 -0.50623 0.082396 -0.2465 0.80009 -0.44878 -2.6585 -0.13689 -0.30755 1.8495 1.4421 0.32334 -0.29875 0.09452 -0.349 0.7357 0.37951 0.12885 1.3724 0.85535 0.12818 -0.30751 -0.59735 -1.0629 -0.83931 -0.61702 -0.34366 0.030624 -1.0825 -1.08 -0.063582 0.64191 -0.034814 -0.16023 0.65881 -1.2872 -0.69742 -0.27271 -0.32249 0.34637 0.22391 -0.20412 -0.91463 0.15462 0.14573 -0.20632 0.41097 -0.6167 -0.41001 0.86225 0.066058
any -0.23676 0.15659 0.30243 -0.15578 -0.39025 0.11214 -0.42827 -0.13996 0.5 0.24438 0.078795 0.46397 0.14506 -0.046024 0.37514 0.0081255 -0.36021 0.44383 -0.0091813 0.52886 -0.20502 -0.32799 -0.17999 -0.64124 -0.15088 -0.040234 -0.12477 -0.7817 0.054377 -0.25998 0.030353 0.38581 -0.13027 0.034101 0.35053 0.26333 -0.14078 -0.074158 -0.40511 0.016175 -1.035 0.12603 0.70112 -0.4682 0.10376 -0.075453 0.38597 -0.44495 -0.62957 -1.2194 0.71918 0.27349 0.23366 0.8171 -0.10224 -2.4382 0.40213 -0.34281 2.4308 0.53376 -0.43856 0.65178 -0.63478 0.47431 1.3655 -0.32165 0.88175 0.46126 -0.036273 -0.089717 -0.48678 -0.628 -0.0014089 -0.4462 0.76526 0.18874 -0.28533 -0.71153 -1.5213 0.32432 0.65619 -0.46233 -0.23229 0.52435 -1.6439 0.047064 0.23839 0.41897 0.40535 -0.49672 -0.66878 -0.008549 -0.26385 -0.31069 -0.44691 -0.32531 -0.17917 -0.16095 0.75331 0.29294
back 0.081466 0.26043 0.57471 -0.86109 -0.040796 0.38158 -0.3095 0.25425 -0.20413 -0.41511 0.09182 0.45834 -0.016965 0.42885 0.23142 -0.14881 -0.30889 0.25861 -0.4643 -0.18131 0.78614 0.58659 0.065481 0.38943 0.5905 -0.070652 -0.71482 -0.99128 0.64624 -0.40502 -0.26623 0.26768 -0.12351 0.25146 -0.17331 0.44574 -0.52414 0.17666 -0.3309 -0.131 -0.58892 -0.54684 0.28784 -0.4185 -0.3522 0.18347 -0.2551 0.034252 0.58586 -0.7979 0.008667 0.35888 -0.0096041 1.2454 0.15646 -2.9822 -0.49468 -0.44974 1.9194 0.62321 0.37604 1.1286 -0.37189 0.45544 0.37194 0.14495 0.50771 0.2642 -0.45295 0.28479 0.19262 -0.00015116 -0.25621 -1.0478 0.052751 -0.26299 -0.604 0.30831 -0.32731 -0.11796 0.54481 0.41001 -0.58269 0.090019 -0.90827 -0.23671 0.13968 -0.051941 -0.76537 -0.21075 -0.46803 0.084476 -0.31192 0.25794 -0.64003 -0.31881 0.089077 0.51851 0.47458 -0.076461
well -0.53086 0.51404 0.087599 -0.37314 0.2747 0.07947 -0.0085023 0.028399 -0.35114 0.094339 0.087771 -0.38307 0.43129 0.15261 -0.1512 -0.4607 0.080433 0.037627 -0.43959 0.42451 0.16058 0.26608 0.35311 0.014055 -0.052771 -0.1615 -0.299 -0.56214 -0.18742 0.044237 -0.28118 0.36594 -0.26226 0.11013 0.44358 0.43131 -0.0053095 0.34705 -0.44883 -0.33727 -0.13281 -0.35542 -0.081663 -0.12983 0.080606 -0.161 0.367 -0.30568 0.057269 -0.794 -0.24581 0.027115 0.13203 1.2262 -0.19183 -2.5497 0.055273 -0.1378 1.4552 0.53697 -0.12337 1.1278 -0.16365 0.21871 0.82735 -0.30681 0.65456 0.17636 0.6172 -0.18425 -0.029966 -0.098315 0.32056 -0.28124 0.25684 -0.034462 -0.12968 0.1944 -0.42318 -0.12843 0.84729 0.17807 -0.39679 0.29828 -1.7337 -0.037541 -0.02989 -0.14391 -0.33299 -0.52234 -0.12178 -0.2509 -0.17904 0.049504 -0.62184 0.20902 -0.55805 -0.55397 0.56137 0.39822
week -0.1428 0.038197 0.5243 -0.43998 0.065116 -0.17529 0.43673 0.85459 -0.58619 -0.15223 -0.078494 -0.040785 0.033358 -0.31544 -0.19734 0.14097 -0.33652 -0.49646 -0.57489 -0.070677 0.5731 -0.12777 -0.05229 0.69314 0.28072 -0.2946 -0.14781 -0.24021 0.055859 0.050689 -0.043951 -0.36493 -0.19972 0.10731 -0.30899 0.56589 -0.3767 0.028393 -0.22639 -0.11031 -0.55298 -0.29535 0.43896 -0.00644 -0.35717 -0.044278 -0.07768 -0.72471 0.5131 -1.2522 0.46653 -0.71526 0.32788 0.85319 -0.54161 -2.6231 -0.513 -0.26244 2.055 0.94851 -0.51229 0.65247 -0.098867 -0.52455 -0.051452 0.3422 0.06331 0.63046 0.0060254 -0.041402 -0.16317 -0.27704 -0.81532 -0.23948 -0.63513 0.49969 -0.13177 0.18217 -1.3799 0.18881 0.77237 -0.30225 -0.51549 -0.15619 -1.2113 -0.72584 0.32968 0.41439 -0.29326 -0.32925 0.23301 0.2969 -0.35814 0.34856 -0.86306 0.51287 0.32494 0.3909 0.78097 0.36744
both -0.30687 0.16697 0.0040692 0.016687 0.45926 -0.025039 -0.21391 -0.030337 -0.42455 -0.23867 0.16391 -0.3877 0.4979 0.28546 -0.060268 -0.3068 -0.15175 0.21051 -0.58625 0.36114 0.41502 -0.38151 0.50545 0.24807 0.25556 -0.42775 0.10067 -0.57864 0.11877 0.2288 0.21748 0.75993 -0.22467 -0.087453 0.45775 0.46619 0.4355 0.561 -0.59455 0.21146 -0.53216 -0.40402 0.11441 0.033054 -0.039832 0.11314 0.42284 -0.27464 0.013095 -0.39035 -0.010706 0.28875 0.04262 0.97421 0.067472 -2.3519 0.21347 -0.29792 1.2593 0.65242 -0.29867 0.80374 0.10806 0.41319 0.66098 0.14132 0.57976 0.7575 0.30592 -0.032431 -0.19615 -0.01936 0.18367 -0.40983 0.32454 0.022286 -0.31395 -0.20126 -0.71793 -0.22198 0.822 0.047957 -0.38488 0.17195 -1.6246 -0.080424 -0.33738 0.12957 -0.22077 -0.61825 -0.47566 -0.31097 -0.48041 0.57019 -0.8467 -0.014167 -0.84985 -0.082094 0.70251 0.2309
even -0.15308 0.63194 0.65512 -0.30706 -0.23919 0.137 -0.29819 -0.1408 0.36013 -0.13795 -0.12024 0.006781 0.073785 -0.16167 0.23611 -0.40154 -0.18858 0.32314 -0.26595 0.35438 0.29291 0.1865 0.072136 -0.13468 0.35318 0.024417 -0.58386 -0.91234 0.077784 -0.40844 0.47068 0.33693 -0.29663 -0.065589 0.27033 0.67653 -0.073111 -0.069452 -0.28631 -0.1368 -0.37174 -0.14945 0.026424 -0.26575 -0.2811 -0.24439 0.72433 -0.29779 0.13543 -1.1994 0.31849 -0.3171 0.075688 1.1812 -0.033059 -2.5578 0.064297 0.018054 1.6014 0.58689 -0.21065 0.98208 -0.11958 0.038047 0.7574 -0.024381 0.82353 0.36967 0.20951 -0.13652 -0.1313 -0.4226 -0.079352 -0.20586 0.03849 -0.0017904 -0.18728 -0.36023 -0.71718 0.11153 0.70959 -0.13703 -0.80791 0.064399 -1.8962 -0.32261 0.076969 0.02553 -0.33365 -0.47001 0.18823 -0.28496 -0.14806 -0.12197 -0.85082 -0.16775 -0.52967 0.003499 0.36214 0.41474
high 0.23191 0.12153 0.29386 0.072764 -0.38304 -0.4951 -0.4896 0.38106 -1.1385 0.72336 -0.27039 -0.39156 -0.081569 0.32687 0.50732 -0.50271 0.026935 -0.09699 -0.0843 0.075377 -0.098599 0.080029 0.66816 0.21625 0.40719 -0.076217 -0.24698 -0.76626 -0.45836 0.52711 0.21671 -0.0091295 0.061904 0.60053 0.062351 0.032397 -0.022087 0.28614 0.25518 0.36703 -0.57334 -0.29495 -0.64289 -0.96003 0.66243 -0.012565 0.713 -0.15858 0.55935 -0.56437 -0.16974 -1.1061 -0.23437 0.6346 -0.1439 -2.9843 0.34014 -0.15353 2.2771 -0.071274 -0.23329 0.3215 -0.34058 0.19131 -0.26933 -0.49666 0.82841 -0.1702 0.60831 0.27916 0.17661 -0.50922 0.14518 0.086441 0.098435 0.18201 0.2101 0.10286 -0.521 -0.48947 0.95318 0.4882 -0.58288 -0.72219 -0.79387 -0.39084 0.36444 -0.46133 0.23086 -0.41769 -0.88894 0.05182 -0.72167 0.25381 -1.0825 -0.093222 -0.35774 -0.69988 0.98634 -0.12299
end 0.14726 0.088411 0.28386 -0.2797 -0.32498 -0.31503 -0.16317 0.49901 -0.050685 -0.13406 0.18811 0.17244 0.19983 0.106 0.44888 -0.16482 -0.15723 -0.2267 -0.52985 -0.19136 0.66418 -0.34908 0.2041 0.19812 0.96231 -0.076071 -0.40823 -0.54391 0.4698 -0.42401 -0.20947 0.25178 0.081003 -0.54254 -0.15188 0.16457 0.018161 -0.074509 -0.19323 -0.27414 -0.060197 -0.16855 0.37944 0.015304 -0.10552 0.025971 0.23706 -0.46123 0.22297 -0.83349 0.15802 -0.20303 -0.12614 1.0924 -0.28469 -2.8841 -0.48502 -0.70376 1.9497 0.3812 -0.42812 0.48972 -0.41521 -0.43973 0.66411 -0.094294 0.52652 0.090762 -0.28974 -0.43982 0.088801 -0.33429 -0.77197 -0.60414 -0.077605 -0.34217 -0.68175 0.72201 -0.93264 -0.23963 0.43971 0.08899 -0.44907 0.48743 -1.0736 0.32468 -0.11632 -0.2534 0.23838 -0.18391 -0.27039 0.72632 -0.61252 0.56877 -0.7907 -0.37271 0.28074 0.28486 0.50204 0.083894
home -0.092998 0.16297 0.73724 -0.37971 -0.077342 0.76823 -0.074471 0.2472 -0.29568 0.26877 0.16257 -0.57607 0.14767 0.17896 0.12081 -0.051907 0.43795 0.25028 -0.62697 0.6331 0.43648 0.43814 0.75078 0.42543 0.084075 -0.31261 -0.49792 -0.60304 -0.32523 0.1209 -0.077789 0.26272 0.29894 0.85102 0.13084 0.47982 -0.43993 0.47408 -0.06119 -0.48955 0.3537 -0.50504 0.12695 -0.6797 0.54241 0.13003 0.19291 -0.17411 0.85916 -0.26002 -0.30243 -0.51926 0.10875 0.71831 0.019399 -2.7363 -0.54512 -0.34702 1.6927 0.58821 -0.24435 0.59183 0.13423 -0.16698 0.25298 0.26853 0.63114 0.046757 -0.12598 0.045965 -0.3553 -0.020918 -0.14581 -1.2608 0.16349 0.62281 -0.12171 -0.030637 -0.89189 0.26495 0.50661 0.70529 -0.29213 0.21897 -0.87666 -0.39202 -0.015993 -0.096598 -0.54524 -0.33413 0.17284 -0.29763 0.78264 0.057181 -1.3875 -0.30772 0.36735 0.57373 0.93698 -0.30258
school 0.80336 0.51195 -0.58513 -0.16546 -0.65033 0.55772 -0.051099 1.0536 -0.45597 1.0997 -0.19709 -0.69005 0.2634 1.0464 -0.31459 -0.41741 0.7036 0.27429 -0.79007 0.46717 -0.92044 0.041713 0.75599 -0.13162 -0.30481 -0.5513 -0.54436 -1.1833 -0.79556 0.55663 -0.76105 0.8459 0.30398 0.5447 -0.72929 0.11762 -0.70917 0.26656 -0.06753 0.053805 -0.87024 0.19024 -0.59956 -0.46065 0.17753 0.22736 0.40392 0.26203 0.46493 -0.099527 -0.50003 -1.0067 -0.35254 0.27211 -0.39462 -3.0186 0.46466 -0.63553 1.6931 0.078175 -0.049976 0.47524 0.13094 0.098022 -0.0098746 -0.68214 0.49468 0.11997 0.34533 1.0207 -0.26943 -0.195 -0.063351 -0.13269 -0.41522 0.49386 0.44739 0.51464 -0.71938 -1.0296 -0.055796 0.34624 -0.37473 -0.90457 -1.1705 -0.027685 -0.39492 -1.1926 0.38333 0.070544 -0.4583 -0.33669 0.0041694 0.85152 -1.3539 0.016616 -0.078291 -0.12729 0.64313 0.13859
old 0.17187 0.62628 0.4375 -0.61145 -0.3596 0.4578 0.064163 0.032826 -0.34442 0.89331 -0.30715 0.72752 0.77566 0.12548 0.63107 -0.25439 0.95043 -0.62161 -0.48553 0.4775 0.043044 0.78751 0.6328 0.49497 1.0595 -0.70889 -0.47843 -1.504 -0.50092 0.74445 -0.3723 0.20476 0.40886 -0.18248 -0.34864 -0.13396 -0.26771 -0.24591 0.76293 -0.20513 -0.21183 -0.73675 0.79743 -0.56995 0.32439 0.64365 0.1075 -0.041559 0.36386 0.056682 -0.042991 -0.70831 0.4609 0.90684 0.30985 -2.5737 -0.97284 0.3372 1.3211 0.61935 0.37118 0.68077 0.030024 0.16423 0.26558 0.44665 1.0901 0.40632 -0.99192 -0.27947 0.38068 0.30683 -0.086059 -0.38399 0.044479 0.16529 0.18359 -0.11766 -1.1888 -0.84626 0.83008 -0.24773 0.23238 0.23131 -1.3542 0.074509 -0.67224 -0.01996 -0.17731 -0.31848 -0.084337 -0.19923 0.1824 0.24455 -1.0465 -0.61433 -0.39154 -0.58809 -0.1414 0.19377
get 0.14433 0.43951 0.58324 -0.74477 -0.49797 0.086928 -0.29798 0.39964 0.14083 -0.36578 0.33322 0.47181 0.1996 0.18278 0.17176 -0.34297 0.04252 0.39309 -0.66272 0.62738 0.22845 0.44657 0.11174 -0.41396 0.079795 0.078823 -0.26135 -0.80966 0.52807 -0.47327 0.055901 0.85753 0.19722 0.30782 0.39039 0.31804 -0.53604 0.1835 0.081918 0.27753 -0.25792 -0.37158 -0.2215 -1.0916 -0.52179 0.12665 -0.48591 -0.26716 0.37119 -1.0525 -0.30202 -0.16279 -0.32528 0.95493 0.14915 -2.4934 0.27505 0.16308 1.8972 0.21172 0.10776 1.1318 -0.85962 0.060199 0.83713 0.030006 0.59344 0.42821 -0.13722 -0.49128 0.0043155 -0.51829 -0.059878 -0.58476 0.062621 0.31269 -0.52613 -0.35209 -0.49959 -0.13117 0.62349 -0.092936 -0.92224 -0.32487 -1.8286 -0.1284 0.50507 -0.034628 -0.79806 -0.49739 -0.096325 -0.17695 -0.036351 -0.75977 -0.49938 -0.20278 0.34232 0.50134 0.49536 0.4992
long -0.24149 0.43733 -0.32623 -0.18897 -0.29305 -0.28223 -0.37429 0.47172 -0.61045 -0.17059 -0.05528 0.74618 0.61522 0.29321 0.23069 -0.40869 0.24888 -0.48797 0.00048047 -0.54519 0.52164 0.73132 -0.0010567 0.10601 0.84546 0.49301 -0.92694 -0.56454 -0.073725 0.087184 -0.17091 0.29569 0.41866 -0.35302 0.33314 0.23985 0.51223 0.31759 0.36975 0.52439 -0.15201 -0.5523 0.41703 -0.13236 0.095632 -0.4792 0.82726 -0.41113 0.24488 -0.11884 0.25559 -0.55004 0.48753 1.2109 0.41641 -2.8652 0.26831 -0.094585 1.8959 0.43377 -0.17049 0.82421 0.10373 -0.18124 0.63302 -0.02878 0.66535 0.12374 -0.08893 -0.18875 0.26731 0.13841 -0.1126 -0.3464 -0.044674 -0.45838 -0.66339 -0.018257 -0.89461 -0.27158 0.70234 -0.077111 -0.35251 0.1509 -1.7293 0.20593 -0.23115 0.079508 -0.092586 -0.11143 -0.18736 0.32542 -0.38972 -0.37078 -0.65679 -0.082912 -0.51918 -0.34876 0.23791 0.21206
called -0.69321 -0.4055 -0.097805 -0.24244 0.17236 0.08163 -0.047831 0.44821 -0.24222 -0.065717 -0.53115 -0.40135 0.28277 0.20314 0.30505 0.14683 0.72686 -0.12494 -0.42272 0.016589 0.2993 -0.23278 -0.34599 -0.28389 0.21532 0.072135 -0.080068 -0.097477 0.039596 0.54599 0.31484 0.75374 -0.12927 0.39599 0.5641 0.14666 0.42306 0.27284 0.1955 -0.12319 -0.65589 0.27151 0.23175 -0.35651 -0.0093057 -0.095994 -0.30947 -0.0073496 -0.078173 0.085239 -0.18881 0.14317 0.46056 0.70236 -1.0063 -2.6236 -0.20536 -0.08254 1.3812 0.91392 -0.03478 0.22303 -0.038465 -0.35531 0.97832 -0.3384 0.42215 0.504 0.24439 -0.40787 0.10728 -0.2331 -0.48326 -0.39685 -0.10597 -0.047702 0.20389 0.28397 -1.0879 0.045633 0.61092 -0.44083 -0.58399 0.007972 -1.478 0.15884 0.17551 -0.25211 0.096376 -0.50949 0.11716 -0.3603 -0.4453 0.65606 -0.046028 -0.45997 -0.47293 -0.48659 0.58224 -0.033299
much -0.3384 0.6032 0.61412 -0.05686 -0.37309 -0.061981 -0.40583 -0.11304 0.018956 -0.086392 -0.19767 0.30401 -0.17332 -0.58002 0.25126 -0.83477 -0.34257 0.18994 0.093403 0.68556 0.41599 0.44229 -0.080242 -0.29032 0.026182 -0.066266 -0.29265 -0.61917 -0.003058 -0.30887 0.046545 0.29265 -0.11817 -0.099073 -0.12231 0.44359 0.037724 0.34108 -0.31529 0.22834 -0.23893 -0.53311 0.09226 -0.26013 -0.345 -0.079983 0.80432 -0.34395 0.42991 -1.2454 0.22909 -0.031585 0.14377 1.1435 -0.29506 -2.7798 -0.083334 -0.50714 1.5535 0.25629 0.43922 1.3835 -0.65789 0.23549 0.66741 -0.084843 0.83077 0.18837 0.49648 0.076237 0.082209 -0.38204 0.12748 0.10687 0.19172 -0.092941 -0.31443 -0.35409 -1.0228 0.452 0.53832 0.089991 -0.67326 0.18871 -1.5292 0.083864 0.016029 -0.11863 -0.40369 -0.49117 0.36135 -0.25832 -0.24702 -0.18608 -0.48393 -0.48878 -0.30166 -0.37964 0.59431 0.61286
next -0.26424 0.22626 0.82339 -0.20665 0.050187 -0.37812 0.22721 0.91286 -0.24134 -0.25365 0.12431 0.09303 -0.082057 -0.04897 0.14869 -0.35864 0.15002 0.48099 -0.25361 -0.26409 0.14916 -0.32134 0.010386 0.56583 0.18566 -0.34025 -0.2106 -0.54901 0.25186 0.15121 -0.71719 0.13736 0.44788 -0.25483 -0.062754 0.62234 -0.4021 -0.28212 -0.056098 -0.22097 -0.35708 -0.27459 0.50315 -0.13496 -0.14528 -0.012431 0.0075285 -0.60886 -0.011221 -0.81087 -0.14036 -0.58278 0.057027 1.0757 -0.48716 -3.0169 -0.56784 -0.1741 1.8463 0.62222 -0.58392 0.87285 -0.32553 -0.0078565 0.56621 0.34026 -0.24294 0.59833 -0.064817 -0.34101 0.47312 -0.48022 -0.45578 -0.66012 -0.071061 0.070737 -0.30658 -0.15749 -0.51771 -0.086326 0.66913 -0.15034 -0.34442 0.12498 -0.90054 -0.38807 0.14146 -0.098806 0.19738 -0.30631 0.18435 0.44287 0.12919 0.3176 -0.76439 0.2722 0.52238 0.34128 0.75776 0.10251
friday 0.018958 -0.38485 0.35845 0.10313 0.065005 0.023816 0.05362 0.75174 -0.70126 -0.055484 -0.31195 0.21666 -0.062754 -0.40727 -0.13177 -0.17486 -0.20604 -0.78592 -0.89493 -0.33548 0.79682 -0.15986 -0.037004 0.75061 0.3101 -0.051387 0.068224 0.27047 0.099651 0.57319 -0.16354 -0.61466 -0.6033 0.53523 -0.0094301 0.0123 -0.016172 0.027472 -0.19174 0.22068 -0.78779 -0.55967 0.35618 -0.026865 -0.114 -0.30275 -0.26952 -0.39205 0.37721 -1.2669 0.43598 -0.47884 0.57228 1.1183 -0.80669 -2.4601 -0.92652 0.15528 2.2168 1.1965 -0.6726 0.20014 -0.19388 -0.29091 -0.5532 -0.094787 -0.064595 0.98719 -0.13238 -0.19128 -0.39824 -0.46292 -0.50552 -0.72638 -0.016621 0.67503 0.024609 0.31312 -1.3448 0.16547 0.63869 -0.3549 -0.3673 -0.43671 -0.7094 -0.80815 0.040289 0.85979 -0.24156 0.059653 0.7471 -0.13874 -0.28174 0.87043 -0.97651 0.77438 0.17787 0.11834 0.75161 0.13906
here -0.43061 0.28297 0.80489 0.029872 -0.041104 0.10521 -0.32806 0.63344 -0.24938 -0.35219 -0.17071 0.12919 0.42364 -0.074508 -0.079763 -0.11251 -0.041759 0.13646 -1.0031 -0.21067 0.57931 0.62496 0.19012 0.0040659 0.10989 -0.24882 0.14462 -0.29259 0.41278 -0.1431 -0.8088 0.077435 0.14726 0.0051221 0.28265 0.63608 -0.61334 0.69082 0.05134 -0.6356 -0.57578 -0.19259 0.10841 -0.71079 -0.10451 -0.69632 0.11582 -0.32466 -0.2075 -1.104 0.31189 -0.59473 0.46699 1.3131 -0.37076 -2.4242 -0.73268 0.1682 1.515 0.31627 -0.86261 1.1005 -0.33838 -0.48014 0.22646 0.23478 0.53868 0.67826 0.13785 -0.33429 0.076811 -0.54158 -0.43622 -0.82307 0.33884 0.39302 0.072379 -0.059034 -0.81964 0.12388 0.49509 -0.2499 -0.43014 -0.11875 -0.86847 -0.025802 -0.58743 -0.082977 -0.62785 -0.42915 0.32 -0.20588 0.029217 0.49212 -0.56173 0.21081 -0.28291 -0.48895 0.50908 0.60909
take -0.27064 0.0051896 0.1497 -0.098242 -0.34941 0.053679 -0.49698 0.65251 -0.34078 -0.23466 0.091924 0.4328 -0.05257 0.25661 -0.073174 -0.31834 0.24386 0.52261 -0.64237 0.3446 0.67449 -0.41091 -0.068067 0.11036 -0.31174 -0.1838 -0.32548 -0.56073 0.46353 -0.38417 -0.66699 0.51162 -0.19582 -0.16548 -0.11617 0.40172 -0.27041 0.12839 -0.24684 -0.086713 -0.51182 -0.11955 0.14814 -0.85205 -0.42312 0.27046 -0.19395 -0.1686 -0.022328 -0.79142 -0.13786 0.084995 -0.19315 1.2555 0.0041198 -2.7418 0.083024 -0.20155 1.8789 0.079497 -0.13951 0.83795 -0.28992 0.035695 0.81729 0.25042 0.06956 0.61749 -0.33027 -0.49086 -0.16137 -0.88796 -0.36941 -0.63618 0.11441 0.087835 -0.7473 -0.1224 -0.50284 -0.28315 0.78754 -0.41615 -0.58013 0.0071536 -1.3391 -0.21096 0.51283 0.4465 -0.0473 -0.47531 -0.101 -0.21284 0.26688 -0.43676 -0.5557 -0.0011168 -0.0016866 -0.23098 0.54587 0.49992
my 0.080273 -0.10861 0.72067 -0.45136 -0.7496 0.63782 -0.25705 0.41606 -0.054465 0.35563 0.35864 0.54004 0.4912 0.25711 -0.21468 -0.42837 -0.42318 0.3872 -0.35692 0.40116 -0.19851 0.43449 -0.36478 0.07172 0.53324 0.84556 -0.6754 -1.2527 0.83759 -0.15925 0.37801 0.94539 0.83069 0.19429 -0.58449 0.5828 -0.62559 0.4904 0.43273 -0.54246 0.1045 -0.16255 0.98995 -0.74219 -0.59784 0.10189 -0.3357 -0.39094 0.15132 -1.3533 -0.11264 0.14345 0.038112 1.1167 -0.23078 -2.6394 0.66849 0.48452 1.8796 0.080274 0.73728 1.8058 -0.51933 0.0040521 0.76986 0.36875 0.81137 0.16941 -0.1192 -0.26496 0.22689 0.76942 0.85197 -0.97773 0.23177 0.88144 -0.2709 -0.39914 -0.57188 0.075573 0.18093 0.59041 -0.1343 -0.12058 -1.8157 -0.355 -0.31721 -0.27044 -0.67226 -0.040986 -0.4433 0.35649 1.0247 0.49685 -0.51696 -0.49276 -0.33402 -0.34842 0.31466 1.0087
north -0.21943 -0.10753 1.4211 0.11515 -0.11106 -0.4232 0.074172 0.46527 0.013844 0.30656 -0.018014 0.17247 0.88858 0.3302 0.3224 -0.15745 0.5737 -0.72434 -0.95151 -0.44931 1.1615 0.9244 0.89791 -0.36227 -0.44977 0.672 -0.30621 0.039734 -0.00075862 0.17978 -0.34238 0.51127 0.18377 -0.052345 0.10054 0.032593 0.79285 -0.54269 -0.4319 0.27105 -1.3452 -0.24818 -0.33608 -0.029198 0.85484 0.17007 0.93133 -0.4483 0.21869 0.38537 -0.055231 0.12827 0.10858 0.052143 -0.02478 -2.7474 -0.83842 -1.6171 1.5287 -0.2746 -0.24846 0.39971 0.0027575 -0.14538 0.39468 0.13177 0.19243 0.88939 0.031327 0.55096 -0.24992 -0.53956 -0.42975 -0.86688 0.3344 -0.11432 0.56625 0.60851 -0.46065 0.083046 0.47972 0.45317 -0.50529 0.4246 -0.82187 0.1851 -0.22909 -0.28878 1.0986 0.19668 -0.44319 -0.091739 -0.44294 0.53735 -1.2287 0.29774 -0.63012 0.16247 1.4362 0.07116
how -0.23769 0.59392 0.58697 -0.041788 -0.86803 -0.0051122 -0.4493 -0.027985 0.065674 -0.37901 0.31175 0.20528 0.431 -0.30913 -0.084523 0.056902 0.34704 0.32332 -0.60413 0.23123 -0.095476 -0.50009 0.024528 -0.5819 0.0075945 -0.13871 -0.26417 -0.7827 -0.24024 0.081827 -0.1867 0.95404 -0.057412 0.0089747 -0.20492 0.060902 -0.018265 0.3349 0.2373 -0.17605 -0.54013 -0.32745 -0.088963 -0.38417 -1.0903 0.17028 -0.019269 -0.35687 -0.0084772 -0.81525 0.23428 0.11118 0.42356 1.111 -0.35535 -2.3889 0.6203 -0.16352 1.445 0.58333 -0.22946 1.4375 -0.063997 -0.31511 1.0875 0.39221 0.73147 0.57236 -0.050781 -0.027736 0.41085 -0.25076 -0.26331 -0.38682 0.50667 -0.178 0.018334 -0.64042 -0.83078 0.26167 0.7191 0.1505 -0.67532 -0.1487 -2.1266 -0.58562 -0.12433 -0.32622 -1.0088 -0.65506 0.12711 0.227 -0.26423 -0.44033 -0.45518 -0.28702 -0.48125 -0.58302 0.20035 0.50308
say -0.091682 0.58105 0.40477 -0.41979 -0.85111 -0.28719 -0.41949 -0.10424 0.45317 -0.099073 -0.13786 0.4999 0.50049 -0.24041 -0.35101 -0.2202 -0.063055 0.23212 -0.69162 0.73671 0.55555 0.20747 0.11246 -0.25942 -0.63256 0.12418 -0.34075 -0.85638 0.10582 -0.6459 0.58201 0.64314 0.073369 0.21239 0.02933 0.19413 0.0032224 0.48618 0.52267 -0.27378 -0.87497 -0.13735 0.022005 -0.42271 -0.534 -0.59254 0.26929 -0.38206 -0.23628 -0.9333 0.39291 -0.053216 -0.25128 1.0639 -0.48971 -2.0789 -0.094213 -0.21049 1.4549 0.6457 -0.34378 0.645 -0.043274 -0.5112 0.79582 0.20839 0.71555 0.71109 -0.29547 -0.064144 0.2128 -0.46951 -0.3592 -0.50957 -0.33883 -0.21741 0.36005 -0.13833 -1.0957 -0.075884 1.0875 -0.48247 -0.58522 -0.41196 -2.0608 -0.42156 0.088446 0.16319 -0.59871 -0.089221 0.58619 -0.41774 -0.30713 -0.55838 -0.65975 -0.080926 -0.34134 -0.38741 0.34695 0.229
around 0.049432 0.29907 0.070318 0.085277 -0.17125 0.93128 -0.67008 0.54096 -0.38016 -0.49383 0.30008 0.28522 0.7559 -0.065383 0.56754 -0.83206 0.1329 0.11873 -0.63604 -0.29106 1.0898 0.65408 0.58158 -0.022854 0.24991 -0.551 -0.14216 -0.065637 0.10867 -0.17114 -0.27218 -0.20419 0.9035 -0.22882 -0.12385 0.41479 -0.15903 0.23308 -0.08571 0.063337 -0.40937 -0.79099 -0.28885 -0.28497 -0.2298 -0.26469 -0.009687 -0.066363 0.017328 -0.61434 0.10515 0.23692 -0.069444 1.6105 -0.61603 -2.6838 -0.7 -0.31433 1.5742 0.81873 0.36615 2.0177 -0.30481 0.30421 0.077525 0.26503 0.33716 -0.12614 0.672 0.11275 0.30333 -0.32643 -0.27705 -0.28524 0.10183 -0.4819 0.76543 0.13401 -0.3008 0.25959 0.68685 0.14341 -0.49093 -0.029874 -0.72508 0.38488 0.49854 -0.28301 -0.12738 -0.025954 0.14759 0.43767 0.056956 -0.37114 -0.68358 0.047255 -0.43799 0.21136 1.4037 0.54495
10 0.086759 0.3431 0.015262 -0.21176 0.016745 0.16417 0.66551 0.57008 -0.48016 -0.086513 1.22 -0.011157 -0.35642 0.28678 0.67092 -0.33746 0.035141 0.070877 -0.8368 0.76705 0.71027 0.093339 0.27353 0.65215 0.46239 -0.27038 0.32758 -0.12183 0.22354 0.23553 0.041341 0.40014 0.16113 -0.52684 -0.29937 0.24468 0.13245 0.17948 -0.4892 0.50635 -0.054496 -0.75931 0.52526 -0.42737 0.22847 -0.60702 -0.40055 -0.88661 -0.19123 -0.39729 -0.41452 -0.75348 -0.43084 1.1405 -0.7077 -2.3559 -0.16866 -0.52046 2.0306 0.91356 -0.39675 0.81674 -0.66153 0.15481 0.22412 0.45764 -0.21857 0.35135 0.54537 0.35387 -0.19377 -0.076632 -0.038375 0.36171 0.13228 0.13748 0.085034 -0.10479 -0.85157 -0.20092 0.92623 -0.18383 -0.53674 0.080922 -0.68858 -0.40219 0.31597 -0.087784 0.16418 0.36074 -0.030817 0.569 -0.16879 -0.3409 -1.3764 0.27924 -0.20352 0.061544 0.57853 -0.55887
family 0.42179 -0.09673 0.10657 -0.21117 -0.54202 0.88692 -0.14038 -0.10424 -0.16009 0.1536 -0.37699 0.045063 0.44316 0.3967 -0.57958 -0.35208 0.5296 -0.43271 -0.21603 1.0731 -0.3356 0.067252 0.57345 0.35972 0.56134 -0.31222 -0.58412 -0.22302 0.081725 0.54772 0.35482 0.8945 0.69674 0.062971 0.17604 0.67448 0.59729 0.49058 0.5237 -0.078386 -0.52658 -0.5653 0.45006 -0.75849 -0.052401 0.051847 -0.32363 0.71197 0.58238 -0.70496 -0.19225 -1.0275 0.88209 0.68192 -0.070748 -1.7905 -0.88179 -0.85265 1.3588 1.0301 0.26106 0.89355 0.43638 -0.58021 1.3251 -0.57793 -0.14836 -0.092882 0.38736 0.22685 -0.47656 0.00068733 0.10141 -0.81426 0.36058 0.29421 -0.28724 -0.61977 -1.3356 0.89373 -0.34835 0.81035 0.60648 0.30482 -1.0622 -0.1244 -0.70532 -0.75184 -0.60592 -0.56799 -0.057787 -0.47453 1.3328 -0.21134 -0.98781 -0.45881 -0.29126 -0.77503 0.81423 -0.38642
same 0.098766 0.38397 0.26227 -0.058741 -0.20597 0.19129 0.031302 0.4311 -0.14923 0.26468 -0.063913 -0.094587 0.19793 -0.096618 0.24348 -0.31467 0.097675 0.24724 -0.32368 0.047118 0.45458 -0.38223 0.1306 0.080704 0.13255 -0.44639 0.26547 -0.61557 0.063596 -0.08303 0.41454 0.68674 0.020873 -0.27769 0.1425 0.33237 -0.022684 0.32512 -0.0078992 -0.15809 0.11388 -0.20844 0.3988 0.12267 0.017449 -0.040645 0.30873 -0.44941 -0.35171 -0.8214 0.24074 -0.015392 0.39307 1.0094 -0.27229 -2.8493 -0.092518 -0.19689 1.7606 0.46902 0.1608 0.9059 -0.37837 0.11984 0.79972 0.10071 0.13774 0.044494 0.15176 0.22861 -0.64129 -0.13822 0.11375 -0.29933 0.28768 0.19966 -0.21373 -0.53014 -0.73647 -0.13001 0.14474 -0.1926 -0.46546 0.18238 -1.3896 0.032834 0.04814 -0.47467 -0.025645 -0.40943 -0.25694 -0.027033 -0.17771 0.26613 -0.2861 -0.20019 -0.80291 -0.40619 0.61264 -0.1077
good -0.030769 0.11993 0.53909 -0.43696 -0.73937 -0.15345 0.081126 -0.38559 -0.68797 -0.41632 -0.13183 -0.24922 0.441 0.085919 0.20871 -0.063582 0.062228 -0.051234 -0.13398 1.1418 0.036526 0.49029 -0.24567 -0.412 0.12349 0.41336 -0.48397 -0.54243 -0.27787 -0.26015 -0.38485 0.78656 0.1023 -0.20712 0.40751 0.32026 -0.51052 0.48362 -0.0099498 -0.38685 0.034975 -0.167 0.4237 -0.54164 -0.30323 -0.36983 0.082836 -0.52538 -0.064531 -1.398 -0.14873 -0.35327 -0.1118 1.0912 0.095864 -2.8129 0.45238 0.46213 1.6012 -0.20837 -0.27377 0.71197 -1.0754 -0.046974 0.67479 -0.065839 0.75824 0.39405 0.15507 -0.64719 0.32796 -0.031748 0.52899 -0.43886 0.67405 0.42136 -0.11981 -0.21777 -0.29756 -0.1351 0.59898 0.46529 -0.58258 -0.02323 -1.5442 0.01901 -0.015877 0.024499 -0.58017 -0.67659 -0.040379 -0.44043 0.083292 0.20035 -0.75499 0.16918 -0.26573 -0.52878 0.17584 1.065
going 0.25882 0.30989 0.6209 -0.6036 -0.30975 0.074115 -0.16815 0.47747 -0.052804 -0.40653 0.50352 0.22004 0.1409 0.22618 -0.042683 -0.42079 -0.53407 0.6959 -0.53567 0.50721 0.54836 0.82342 0.152 -0.20575 -0.084935 0.29254 -0.38988 -0.54644 0.44613 -0.32764 -0.78297 0.20234 0.39221 -0.12715 0.030385 0.34299 -0.47614 -0.060198 0.26243 -0.27867 -0.29145 -0.058437 -0.27487 -0.65204 -0.59781 -0.079405 0.15069 -0.21594 -0.22903 -1.6016 0.19113 -0.27184 -0.083959 1.0196 -0.035784 -2.6387 0.1404 0.27445 1.6919 0.55546 -0.5262 0.78983 -0.6135 0.030262 0.76147 0.60136 0.53886 0.38701 -0.51676 0.078274 0.24947 -0.50622 -0.37713 -0.64733 0.018452 -0.057522 -0.27446 -0.061627 -0.32015 0.093408 0.36066 0.13916 -0.73009 -0.022263 -1.4351 -0.27918 0.048248 -0.16965 -0.66137 -0.53437 -0.47685 -0.12969 -0.041339 -0.24197 -0.68138 -0.18801 0.29209 0.16341 0.49838 0.43055
month 0.21605 0.14269 0.21949 -0.11729 0.28479 -0.35733 0.31654 0.77597 -0.46234 0.23393 -0.13205 -0.0022117 0.25745 -0.18118 0.024437 -0.16101 -0.26382 -0.56511 -0.55455 -0.16636 0.69069 -0.2959 0.024244 1.0965 0.32032 -0.36994 -0.14221 -0.36926 -0.053476 -0.046911 0.25291 -0.31564 -0.058588 -0.15633 -0.10163 0.53182 -0.016067 0.11763 -0.25379 -0.19135 -0.49432 -0.11054 0.72709 -0.056881 -0.053099 0.017289 -0.10864 -0.97828 0.40484 -0.98943 0.49479 -0.87718 0.33356 1.0664 -0.60349 -2.5473 -0.67384 -0.35472 2.2094 0.71577 -0.20195 0.39035 -0.21362 -0.37952 -0.11612 0.48692 -0.077741 0.36762 0.19624 -0.17126 0.17745 -0.067121 -0.90418 -0.098119 -0.70355 0.50726 -0.18 0.055073 -1.6407 0.056078 0.78837 -0.17691 -0.27099 -0.059908 -1.0743 -0.43209 0.37148 0.38962 0.14638 -0.30023 0.15322 0.2522 -0.22253 -0.0267 -0.70729 0.5254 0.41836 0.46695 0.51897 -0.43816
bank 0.41869 -0.92211 0.048684 0.11798 0.22062 -0.32506 -0.78456 0.43787 -0.14762 0.0631 0.23754 1.4837 -0.54762 0.80406 -0.0037728 0.24949 -0.15523 -0.66263 -0.060428 0.10121 0.51163 0.43285 -0.60858 0.22083 -0.62269 -0.9374 -0.19981 -0.69866 -0.3368 0.40864 0.46296 0.59369 -0.5655 0.24968 -0.37977 -0.84865 0.60765 -0.035362 0.062735 -0.949 0.13185 -1.0301 -0.077346 0.81087 0.18624 0.45122 0.36329 0.40375 -0.77568 -1.2271 -0.47763 0.094753 1.0842 0.71649 -0.89553 -2.4286 -0.62272 -0.74197 1.4537 1.1202 0.12085 -0.52417 -0.007246 0.46182 0.82402 0.057731 -0.11212 1.1369 1.2533 -0.16477 -0.18941 -0.34252 -0.82302 -1.0924 0.0319 -0.14412 -0.11448 0.43761 -1.0946 -0.2936 1.9768 0.10246 -0.53153 0.052601 -0.50998 -0.18428 -0.13771 -0.27539 1.3457 0.061392 0.43842 0.032165 0.22058 -0.65447 -0.72461 0.95152 0.81584 -0.17933 0.43912 0.50967
